OMIM:264800	0.480959	-0.087373	0.853667	0.272602	-0.118194	-0.665508	0.490647	0.1412	0.041348	0.121308	-0.280446	-0.248243	0.847483	0.293877	-0.615848	-0.422114	-0.320181	-0.285891	-0.672942	0.099514	0.615211	-0.286722	0.990034	0.352274	-0.622466	0.147935	-0.632966	-0.014525	-0.43821	0.480152	0.10144	0.384645	-0.692579	0.378034	0.028518	-0.184208	-0.029109	-0.290226	-0.368571	0.479052	0.548541	0.348422	0.677087	-0.098136	-0.128697	-0.321188	-0.531396	-0.522942	0.158604	-0.317118	-0.374891	-0.069108	0.017768	0.803324	0.453169	0.80797	0.472341	-0.027732	-0.659733	-0.682122	0.341082	-0.342154	1.02959	0.960907
OMIM:600467	1.101	0.547452	0.932444	1.03257	-0.208501	-0.644448	0.520704	0.422065	0.38426	-0.137812	-0.600275	0.990295	-0.57928	-0.028351	0.0199	-0.855916	-1.14713	-0.246336	0.136485	-0.07696	0.173655	0.24158	-0.333855	0.507361	-0.221639	-1.09047	-0.803332	1.096	-1.26045	0.026439	0.444208	-0.146513	-0.270704	0.782197	0.238189	-0.229993	0.341436	0.256119	0.141457	0.130222	0.059768	1.32199	-0.113737	0.862685	-0.071384	-1.02662	-0.185	0.220227	-0.181154	0.111853	-0.610169	-0.631978	0.327449	-0.270012	0.356878	-0.201643	0.382794	0.161882	-0.108448	1.06054	-0.223351	-0.401212	0.052259	-0.177708
OMIM:614684	-0.38321	0.653086	1.02696	0.227917	0.294941	-0.971702	0.608252	-0.257324	0.634756	-0.20455	0.070218	-0.690826	0.318776	0.032019	-0.241546	-0.087798	-0.591323	0.252194	-0.491155	0.612077	-0.39795	-0.70388	-0.306019	-0.488695	-0.605818	-0.584834	-0.028384	-0.221532	-0.640665	0.292874	0.506209	0.296599	-0.256293	-0.523745	-0.296109	1.22558	0.499675	0.536211	-0.219586	-0.114756	-0.002782	0.510076	0.061129	-0.282432	-0.600273	0.483857	-0.6101	-0.24157	-0.349033	-0.104833	-0.215152	0.27839	0.179454	0.300279	-0.004942	-0.177627	0.354024	-0.382733	0.108611	-0.069896	-0.211897	0.227755	0.779114	-0.124945
OMIM:614688	0.102005	0.494909	0.904648	0.415582	0.407572	-0.869812	0.359443	0.376104	0.105319	-0.215546	-0.226094	-0.176339	-0.146138	-0.318685	-0.488419	-0.278865	-0.262391	0.919588	0.143157	-0.129607	0.077612	-0.166041	-0.078424	-0.230703	-0.247771	-0.49771	-0.006428	-0.284154	-0.252129	0.171798	-0.131215	-0.099431	-1.1824	0.327161	-0.557973	-0.005149	-0.121443	0.121267	-0.20701	-0.791341	0.573192	0.251789	-0.484984	0.700174	0.120488	0.255731	-0.066078	-0.137015	-0.180343	0.395683	0.886096	0.338306	0.003155	0.853889	0.499873	0.197393	0.625015	-0.449031	0.532107	-0.073571	-0.061444	-0.568621	0.18022	0.510292
OMIM:608782	0.593273	0.299794	0.58976	0.245379	0.077198	-1.39908	-0.034962	0.844437	-0.154314	-0.182492	-0.01903	0.745387	0.026465	-0.092896	0.053905	-0.491302	-1.13267	0.334458	-0.01699	0.698036	-0.028476	0.506911	-0.28519	0.136934	0.181378	-0.130652	0.633252	0.235027	-0.920625	0.400704	-0.755498	-0.315153	-1.14188	0.585524	-0.085131	0.210708	-0.1648	0.435514	0.087888	0.147075	0.001916	0.411722	0.344169	0.69968	0.200431	-1.01366	-0.408634	0.172069	0.090732	0.451384	-0.094615	-0.590656	0.566433	0.18164	0.315678	0.456785	0.572572	0.425271	0.323568	0.153071	0.516087	-0.64964	0.038767	0.36129
OMIM:185050	0.019971	0.491442	0.60169	-0.146566	-0.962784	0.044485	0.068624	-0.304099	-0.389233	-0.034283	0.435046	0.534384	0.255882	0.989392	0.323668	-0.719486	0.429326	0.281595	-0.432646	0.225604	-0.462327	-0.550587	0.560746	0.549597	0.007258	-0.063075	-0.957037	0.248097	-0.639378	-0.465723	0.899186	-0.781888	-0.349484	0.824187	0.986253	-1.09397	1.03435	0.432342	-0.408156	0.084893	0.432268	0.50059	-0.517207	-0.313911	-0.428204	0.890314	-1.20382	-0.181242	-0.0174	-0.267537	-0.991986	-0.491323	0.928693	-0.619634	-0.303767	0.948468	0.379189	0.478457	0.060052	-0.109779	0.723071	-0.752091	0.320768	0.697257
OMIM:244300	-0.003942	-0.37253	0.568684	-0.148686	0.150172	-1.03276	0.042894	0.47249	-0.145294	-0.104941	-0.731222	0.181628	-0.490194	-0.388267	-0.455162	0.232521	-0.419252	0.10139	-0.133255	0.420087	-0.218892	0.126768	-0.605598	-0.571143	-0.328916	-0.059956	0.033623	0.408677	0.066012	0.419827	0.227682	0.048979	0.556705	-0.412461	0.157107	0.677465	0.638482	0.056673	-0.574458	0.364677	0.118046	0.063847	-0.277425	0.584585	-0.215612	-0.04975	-0.405279	0.799315	-0.065409	-0.799976	-0.624619	0.116614	-0.207802	0.054804	0.039542	0.036806	0.837241	-0.637455	0.547276	-0.236658	0.614306	-0.260652	0.59463	0.329835
OMIM:226670	-0.190547	0.376924	1.23609	0.597742	0.191178	-1.01827	0.450389	-0.235174	0.20612	-0.227093	-0.213096	-0.043523	-0.376787	0.05344	0.168532	-0.358798	-0.479425	-0.186962	-0.273261	0.88483	0.093995	0.154618	-0.419918	0.679351	-0.515782	-0.413536	-0.055374	0.089544	0.053174	-0.014951	0.814385	0.555325	-0.587235	-0.491745	-0.79641	0.216206	0.503533	0.709737	-0.023526	-0.301596	0.646589	0.157774	-0.786344	0.164815	-0.964532	-0.087685	-0.338709	0.202555	-0.128328	-0.219233	0.46561	-0.046509	-0.437982	0.127383	0.862969	-0.284332	-0.498742	0.152495	-0.451842	-0.23494	-0.573571	-0.075513	-0.05678	-0.124416
OMIM:160300	0.32946	0.532059	-0.083627	0.666843	0.165833	-0.603024	0.201864	0.658312	-0.304216	0.310401	-0.35001	0.465659	-1.05149	0.511282	-0.814936	-0.536232	-0.287556	-0.192867	0.541716	-0.043849	0.370414	0.496633	-0.579996	1.00247	-0.428511	-0.309736	-0.966749	1.66194	-0.516171	0.253265	-0.970863	-0.861801	-0.330818	0.230341	0.333183	0.0342	0.290063	0.543319	-0.639113	-0.500914	0.125991	0.474253	-0.735553	0.604401	-0.006238	0.144303	0.024207	-0.219195	0.158447	-0.190255	-0.137762	-0.593005	-0.209205	-0.282123	-0.371925	0.240117	0.649401	0.002664	0.003672	-0.548101	-0.267906	-0.869039	0.086428	-0.078821
OMIM:615374	0.294938	0.377324	0.626679	0.064809	0.262061	-0.273252	0.513789	0.149581	-0.014752	-0.330904	-0.43657	-0.719989	0.034881	0.817708	-1.11341	-0.693758	-0.004082	0.620427	-0.070427	0.178905	0.476705	-0.303923	0.593577	0.023763	-0.682482	0.363161	-0.884499	0.165412	-0.232398	0.231284	0.457904	-0.018745	-0.740504	0.235293	0.215113	0.131602	0.292234	-0.663576	0.797847	-0.55178	0.393565	0.959354	0.599742	-0.294987	-0.333079	0.266604	-0.209458	-0.594168	0.189897	-0.324629	-0.065315	-0.354778	-0.322565	0.505276	-0.554546	0.867794	-0.683119	-0.277013	-0.504719	-0.165756	-0.206951	-1.18415	0.832842	0.014909
OMIM:615377	0.1693	0.212771	0.394602	1.07354	-0.517299	-0.244481	0.420711	0.697624	0.244485	-0.076139	-1.05346	0.727643	0.3708	0.229268	0.177262	0.144321	-0.614833	0.691769	-0.473941	0.026876	0.1758	-0.363698	0.389379	0.518131	-0.15837	-0.224895	-0.975519	-0.12903	-0.091546	0.339837	0.920157	-0.803937	-0.787737	0.202055	-0.392757	-0.803357	-0.099038	0.007355	-0.335468	0.602346	-0.027585	0.92141	-0.423021	-0.021723	0.173154	0.613845	-0.267607	0.359634	-0.584705	0.607343	-0.917676	-1.30342	-0.515209	0.28835	0.622501	1.05052	1.14803	0.17338	-0.015072	-0.818223	-1.23829	-0.402569	0.237183	-0.009992
OMIM:615376	-0.104143	0.665191	0.611887	-0.128	0.028355	-0.618507	0.411403	0.829247	0.40473	-0.160464	-0.356178	0.382346	-0.660865	0.952297	-0.118956	-0.113448	-0.255937	-0.261595	0.614231	0.331951	0.385629	-0.167538	-0.651629	0.17034	-0.474236	-0.520479	-0.566949	1.55023	-1.04595	0.181513	-0.143336	-0.800225	0.258404	-0.287317	0.493348	-0.354933	0.476348	0.233391	-0.058315	-0.729268	0.574753	-0.104262	-0.273835	0.474878	0.059893	0.301486	-0.617753	0.155983	0.394448	0.264033	0.493212	-0.636877	0.075263	0.007175	-0.697556	0.064212	0.870142	0.877884	0.127152	-0.640584	0.034145	-0.595182	-0.574528	0.09636
OMIM:600461	-0.424687	0.194652	0.846324	-0.355212	0.200105	-1.05674	-0.512425	-0.264995	0.400571	0.392124	-0.023003	-0.015694	-1.16148	-0.117849	0.433179	-0.552765	-0.708574	-1.05568	-0.112542	0.39392	-0.056338	0.008065	0.033164	-0.070408	-0.490138	-0.563342	0.322981	1.28618	-0.199541	-0.578847	0.503738	0.23931	0.632572	-0.643339	-0.03725	0.611248	0.244636	-0.363438	-0.316115	0.191676	0.656843	0.523119	0.067489	0.152976	-0.419056	-0.241651	-0.667931	0.213071	-1.28042	0.010649	-0.39526	0.151214	0.006809	-0.67679	-0.809842	-0.555221	0.511201	-0.301934	0.245395	-0.582722	0.675593	-0.153412	0.878421	0.29161
OMIM:615373	0.204148	-0.062502	0.247051	0.759728	-0.224393	-0.3726	0.365247	0.086617	0.086448	0.014805	-0.935943	0.112063	-0.142895	0.368488	-0.038134	-0.362457	-0.378647	0.616284	-0.857218	-0.268082	0.248924	-0.378585	0.612181	0.60713	-0.434065	-0.180892	-1.0283	0.302165	-0.438832	0.310948	0.546007	-0.921038	-0.477193	0.650008	-0.013633	-0.666726	0.221015	0.046532	-0.763475	0.599434	0.070472	0.51034	-0.428337	-0.3076	0.371269	0.732607	-0.284399	0.299318	-0.345657	-0.195968	-0.532421	-0.783202	-0.392031	0.530117	0.325196	0.464111	0.975982	0.256676	-0.092786	-0.259701	-1.10713	-0.820513	0.419319	-0.022579
OMIM:615378	-0.409797	0.004378	-0.202808	0.751955	0.228904	-0.125469	-0.51129	0.151383	0.725394	0.237917	-0.45485	1.07626	0.457368	0.622265	-0.746598	-0.037835	-0.042088	0.138261	-0.367043	0.057514	0.17553	0.31482	0.504748	1.08014	-0.26168	0.605135	-0.948493	0.584477	-0.31135	-0.228719	0.010994	-0.073327	-0.328674	0.299038	1.15237	-0.181266	0.5617	-0.220445	-0.387415	0.467238	-0.213742	0.472801	0.814754	0.014455	-0.320732	0.488521	-0.884565	-0.555018	0.104995	-0.533853	-0.292017	-1.15795	-0.093399	0.26444	-0.172511	1.05427	0.620252	-0.055739	0.052554	0.232973	0.184284	-1.28217	-0.277431	0.291196
OMIM:614974	-0.038346	0.137262	0.621154	0.433251	0.170141	-0.436285	-0.478148	-0.105233	0.136227	-0.014106	-0.622233	0.341051	-0.453897	0.952157	-0.011994	-0.537736	-0.433511	-0.124123	-0.275544	0.212754	0.111669	-0.175811	0.371624	0.240405	-0.533887	-0.004275	-0.993505	0.261897	-0.335735	-0.312138	0.434709	-0.335323	-0.656568	0.128265	0.138601	0.072048	0.201984	0.03376	-0.183888	-0.461305	0.06241	0.215955	0.498251	-0.144214	-0.430099	0.902404	-0.142045	-0.350078	0.381146	-0.267624	-0.253612	-0.206075	-0.171691	0.492833	-0.628186	0.166488	-0.030265	0.115083	0.127589	0.450219	-0.400333	-0.611702	0.294807	-0.059071
OMIM:614976	-0.66423	0.490805	1.08403	0.19597	0.072407	-0.930641	0.344411	-0.235175	0.703981	0.009726	-0.405742	-0.876809	-0.088525	-0.184588	0.168962	-0.476404	-0.818277	-0.278244	-0.46361	0.161559	-0.188419	-0.282677	0.048687	-0.239033	-0.427558	-0.930131	0.044591	-0.123281	-0.110805	0.126371	0.273741	0.564155	0.105932	-0.301017	0.159195	0.368138	0.08425	0.279319	-0.27341	-0.438054	0.194795	0.248718	-0.31836	0.291604	-0.517247	-0.166339	-0.173933	0.309368	-0.358359	-0.153927	-0.1074	0.181822	-0.433634	0.364829	-0.082153	0.09708	0.702867	-0.203724	0.378782	0.075136	0.361632	-0.031757	0.593629	-0.652347
OMIM:614970	0.780668	1.09823	0.794035	0.034434	-0.11024	-0.973469	0.592388	-0.147798	-0.059577	-0.105336	-0.903254	0.01278	0.249034	0.297305	-1.2471	-0.801542	-0.631721	0.406987	-0.333555	0.544137	0.535779	-0.032269	-0.49182	0.114707	-0.038178	-0.458216	0.118558	0.444257	0.525133	-0.137805	-0.01849	0.118541	-0.385079	-0.437237	-0.330218	-0.269412	0.879107	0.33954	0.469689	-0.32336	-0.381325	0.537861	0.397413	0.034732	-0.404106	0.483008	-0.290023	0.058765	0.456665	0.48537	0.563238	0.155453	-0.268871	0.801219	-0.209416	0.612507	0.480773	-0.251253	0.287086	0.844811	-0.123493	-0.084857	0.883013	-0.076308
OMIM:608567	0.410864	0.455734	0.248772	0.986041	-0.240993	-0.558975	0.035469	-0.004078	0.399983	0.197836	-0.567047	0.342534	-0.553243	0.344428	-0.089494	-0.338883	-0.762822	0.474248	-0.664987	-0.627559	-0.0773	-0.287475	0.456663	0.918581	-0.232047	0.007146	-1.14953	0.656681	0.048942	0.143208	0.151084	-0.508768	-0.230132	0.522733	-0.391381	-0.416231	0.007335	-0.439698	-0.519483	0.395887	-0.058911	0.543369	-0.349181	0.188265	0.180708	0.147068	-0.265462	0.225972	-0.080453	-0.363473	-0.676512	-1.01095	-0.195565	0.611728	0.451009	0.505443	0.528005	0.316597	-0.258077	0.316688	-1.20142	-0.83033	0.652267	-0.026846
OMIM:238350	0.693398	0.193238	0.763757	-0.253516	-0.082085	-0.238736	-0.274756	0.15049	-0.020268	-0.19902	-0.680062	0.532116	-0.659209	0.622071	-0.31197	-0.299654	-0.995596	0.330343	-0.586427	0.696739	-0.009713	0.183496	-0.269763	0.171204	-0.952	-0.231969	-0.919648	0.317237	-0.167613	0.042355	-0.257476	-0.724784	-1.51633	0.514379	0.554946	0.199937	0.413908	0.341402	-0.153745	-0.33292	-0.104688	0.892889	0.058701	0.179319	-0.644293	0.426134	-0.365203	-0.172778	0.210394	0.255373	0.454062	0.178843	-0.315893	0.26716	0.02611	0.639112	0.313152	-0.313519	-0.228084	0.58526	-0.001616	-0.306305	0.112309	0.226348
OMIM:614979	-0.321346	-0.317939	0.074067	0.838376	-0.487709	-0.056323	-1.3903	-0.520884	0.360778	0.179751	-0.01395	0.468418	-0.071381	1.00139	0.148435	-0.703982	0.282347	0.602456	-0.176467	0.740049	-0.117741	0.296624	0.507115	1.48538	-0.103189	0.126595	-1.49986	0.568412	0.20067	-0.733665	0.31483	0.274724	-0.347684	-0.246554	0.23396	0.060508	1.23092	-0.081887	-0.075304	0.370567	0.728543	0.671563	0.001239	0.391718	-0.629653	-0.014512	0.136252	-0.017911	-0.500691	-0.536128	-0.817966	0.697413	0.466095	0.23813	0.546181	0.852791	0.58036	0.65949	0.23586	0.011944	0.030234	0.172253	-0.281313	0.070308
OMIM:230400	0.402264	0.446753	0.520003	0.620971	0.435377	-1.20432	0.280718	-0.158551	0.692225	0.331166	-0.118765	0.805287	-0.175174	-0.010062	-0.190175	-0.144336	-0.69806	0.260606	-0.17241	0.269769	-0.311793	0.164092	0.27353	-0.016975	0.112738	-0.021513	-0.371688	0.543531	-0.337996	-0.464352	0.387704	0.054416	-0.305541	-0.160823	-0.296535	1.26179	0.474874	-0.104832	-0.184864	0.002292	0.065948	0.912745	0.609266	0.42206	-0.002149	-0.029963	-0.092078	-0.294489	-0.414181	-0.54489	0.738346	-0.238107	0.878153	-0.191239	0.880714	0.205913	-0.317513	-0.134617	-0.109486	0.191829	0.027804	-0.698059	0.288251	0.833353
OMIM:615085	0.520013	0.187037	1.50078	1.22899	-0.02484	-0.725586	0.757451	-0.276214	0.190454	0.692831	-0.008709	-0.033277	-0.281233	0.19765	0.170011	-0.220229	0.111662	-0.455669	0.717787	0.317506	-0.351815	-0.315563	0.05581	-0.410393	-0.384161	-0.62587	0.733739	0.724557	0.250049	-0.387006	-0.250298	-0.360798	-0.652872	-0.032635	-0.627808	-0.420987	-0.07327	-0.179389	0.033216	-0.14428	1.05023	0.080014	0.536212	0.563839	-0.219415	0.331932	-0.169219	-0.760561	-0.579	-0.388064	0.272799	0.15069	0.604167	0.309287	0.094204	0.044727	-0.517154	0.499063	0.601482	0.100843	0.581996	-0.927875	-0.091796	0.409339
OMIM:615084	0.35502	-0.235879	0.910388	0.095151	-0.814297	-0.732659	0.233748	0.270108	0.141182	0.413811	-0.122952	0.508853	-0.473962	0.371049	0.264548	0.015864	-0.045878	-0.16496	0.248497	0.166029	-0.232048	0.648313	-0.850238	-0.181829	0.256181	0.153348	0.393737	0.880969	-0.113855	0.287705	-0.725223	-0.936914	-0.553855	-0.391633	0.085263	-0.170895	0.274889	-0.434419	-0.185247	-0.035586	-0.015902	0.319997	0.046816	0.241603	0.124245	0.268947	-0.929086	0.148331	0.14423	-0.68738	-0.576962	-0.359743	-0.031815	0.360969	0.426012	0.233679	0.775904	-0.184051	0.765662	0.570066	-0.410561	0.274857	0.366854	0.118383
OMIM:615083	-0.201149	0.191059	0.427745	0.190104	0.330159	-0.977872	-0.639701	-0.466398	-0.606039	-0.130794	-0.604454	0.16495	-0.484394	0.74351	0.050141	-0.600332	-1.02505	-0.131977	-0.739437	-0.386846	-0.425894	-0.40291	-0.002758	-0.245718	-0.501202	0.608457	-0.642209	-0.274707	-0.2807	-0.669179	-0.011859	-1.61998	-1.12499	0.353623	0.502283	0.083381	0.811611	0.391223	-1.21774	0.270801	0.802495	0.997315	-0.216743	0.564716	-0.072053	0.639075	0.319832	-0.681362	0.119205	-0.053669	0.040937	-1.14576	0.089413	0.961045	-0.085161	0.519662	0.733261	0.388359	-0.234258	0.654216	0.563646	-0.14479	-0.168435	0.592984
OMIM:615082	-0.089629	-0.099278	0.270326	0.435251	0.003116	-0.456691	-0.271204	-0.321956	-0.002788	-0.139521	-0.925746	0.095756	-0.211757	0.550785	-0.099697	-0.633978	-0.254266	-0.02244	-0.271865	0.207169	0.009892	-0.13652	0.043756	0.342614	-0.196956	-0.085623	-0.724318	0.281653	-0.478208	-0.344745	0.687473	-0.684313	-0.818283	0.46251	0.120724	-0.107309	0.233496	0.450619	-0.476567	-0.267293	0.248618	0.590877	0.205392	-0.017841	-0.432844	0.734626	0.189021	-0.173422	0.122776	-0.25973	0.159406	-0.296232	-0.010026	0.664957	-0.748164	0.140671	0.044036	0.098408	0.231442	0.290562	-0.61831	-0.526807	0.507806	0.002229
OMIM:615081	0.261203	0.172855	0.105842	-0.22283	0.407921	-0.369884	-0.360982	-0.551718	-0.097141	-0.070129	-0.100403	-0.312018	0.049566	0.357733	-0.596398	-0.31419	-0.078368	0.037946	-0.570834	1.06464	-0.031517	-0.809993	0.257967	-0.775941	-0.591186	-0.265669	-0.834248	0.717761	-0.237691	-0.298296	0.321915	-0.344621	-0.599601	0.428652	0.278113	0.123876	0.496992	-0.497649	-0.525603	0.21129	1.27054	0.074036	-0.150213	0.346233	-0.480616	0.335929	0.370609	0.493059	-0.047842	-0.26595	-0.535526	-0.877842	0.102956	-0.219936	-0.081435	0.970397	-0.254305	0.502813	0.857826	0.248813	-1.27264	-0.705701	-0.241783	-0.176141
OMIM:116800	-0.607992	0.742685	0.784834	0.504942	-0.280604	-0.83216	0.071322	0.635043	0.425519	0.211966	-0.845815	-0.561626	0.48715	0.79662	-0.911035	-1.09849	-0.485484	0.591809	0.148776	0.294494	-0.400898	-0.864399	0.403649	0.176114	-0.158094	-0.534391	-0.271174	0.014946	-0.297047	-0.129055	0.480693	-0.408062	0.319646	-0.643757	0.120757	-0.025348	0.53783	0.639283	0.094641	-0.689501	-0.055268	1.09176	-0.268498	0.053717	-0.792355	-0.14159	0.415326	0.38844	0.589068	-0.158397	-0.206583	-0.051195	0.69297	0.676667	-1.05526	-0.466812	0.111446	0.384347	0.050302	0.017148	-0.068088	-0.441723	1.12139	-0.833817
OMIM:272440	-0.174284	0.999195	1.23743	-0.075128	0.41074	-0.734791	0.088375	-0.680563	-0.65167	0.750103	0.037383	-0.030101	-0.065543	-0.056367	0.714043	0.203134	-0.626461	0.587331	0.089337	0.441322	1.23825	-0.161674	-0.721708	0.156264	-0.369996	0.058995	0.056875	0.309133	0.189266	0.462961	0.447353	0.246545	-1.07318	0.060668	0.010941	0.869065	0.505633	-0.021009	-0.216819	0.391597	0.655765	-0.230773	-0.110376	0.631481	-1.18245	0.101817	0.009438	-0.029067	-0.070869	0.400571	0.491758	-0.235221	-0.657029	-0.016461	-0.250611	0.685915	0.555509	-0.227976	0.053773	0.076109	-0.193772	0.299836	0.204533	-0.773571
OMIM:116200	0.247017	-0.380418	0.693881	-0.139522	-0.638901	-0.847213	0.000389	0.091897	0.690322	0.178564	-0.419035	-0.615742	-0.156369	-0.211605	-1.19207	-0.177185	-0.431692	0.233313	0.28002	0.410265	-0.055982	0.264165	-0.315634	0.988574	0.381012	0.327521	-0.61493	-0.822813	0.30379	-0.239698	0.62739	-0.019439	-0.585951	-0.712287	0.487215	-0.123083	1.4594	0.361475	-0.238065	-0.555353	0.428356	0.866712	-0.204142	0.407676	0.793024	-0.422428	0.028407	0.149257	0.800824	0.053292	-0.792007	-1.30456	0.059525	0.04529	-0.206544	-0.391483	0.602675	0.262584	0.138916	-0.176696	0.051069	-0.854754	0.865031	-0.740332
OMIM:140600	-0.033331	0.364355	0.601202	1.11786	-0.568243	-0.767201	0.390462	0.808691	0.535684	0.162001	-0.45667	-0.219725	0.304321	0.89822	-0.484281	-0.68912	-0.853857	0.415107	-0.288973	0.915195	-0.406646	0.461138	-0.218382	0.835398	0.377358	-0.99894	-0.797283	0.338867	-0.747093	0.497418	1.5444	-0.177973	-0.009208	-1.15488	0.346225	-0.381935	0.098807	-0.496418	0.413032	0.124825	0.380798	0.380789	0.444141	0.073852	-1.03177	0.840384	0.392498	-0.359077	-0.680449	-0.843589	-0.223992	-0.108518	-0.329103	0.542166	-0.771579	-0.551996	-0.137952	-0.769291	0.301778	0.294043	0.237572	0.006278	-0.673748	0.510445
OMIM:263600	0.336462	0.359718	0.848016	0.491797	0.04934	-0.047516	0.351515	0.295921	0.575613	0.103164	-0.270239	0.85124	-0.346277	0.675553	0.221009	-0.305591	-1.00686	0.054681	-0.0193	0.204141	0.686172	0.501867	-0.002016	0.251885	-0.477505	-0.59044	-0.785833	0.660035	-1.53349	-0.027488	0.776285	-0.205199	-0.696532	-0.040188	0.236559	0.173509	-0.180731	-0.680805	0.224222	0.446628	0.055171	0.686066	1.18953	-0.349333	0.180163	0.063327	-0.458398	-0.273684	0.249299	-0.141963	0.275013	-0.106186	-0.013186	-0.2817	-0.260448	-0.128461	0.102774	0.320931	0.473703	0.729007	-0.274779	-0.33861	0.306253	0.030132
OMIM:179700	-0.012268	-0.142917	-0.290366	0.380666	-0.114752	-0.327333	-0.36565	0.644837	0.01917	0.185	-0.069927	0.966013	0.217909	0.530405	0.253	-0.40092	-0.446566	-0.390852	-0.180905	0.893977	0.192346	0.610458	0.177009	1.28455	-0.354101	-0.606475	-0.910504	0.414274	0.35538	-0.193992	0.457979	-0.650822	0.349433	-0.130759	0.010666	-0.359032	0.537785	-0.697617	0.556449	0.091878	0.573673	0.200379	0.558518	0.52815	-0.465188	0.62353	-0.416446	0.0959	-0.159098	-0.566786	-0.192171	-0.185237	0.354801	-0.51011	-0.887525	0.146526	-0.250564	0.215688	0.425355	0.294243	0.074438	-1.33694	-0.28339	0.575272
OMIM:149730	-0.902954	0.444379	0.441698	0.727102	0.260064	-0.290509	0.288287	0.174951	0.292334	1.03578	-1.00484	-0.645355	0.332466	-0.059572	0.370798	-0.887789	-0.844968	0.928512	0.31377	0.327138	0.003239	-0.175459	-0.971917	0.456784	-0.249925	0.337506	0.001814	0.33588	0.461379	-0.739573	1.21187	-0.226128	-0.490724	-0.586659	-0.204227	1.05349	-0.24085	0.752543	0.392119	0.465512	0.093815	0.630501	-0.006414	-0.396976	-1.48543	0.229274	0.578601	-0.159565	-0.220184	0.545893	-0.346562	-0.141516	-0.070849	0.208861	-0.376413	-0.224222	0.258877	-0.789245	0.350951	-0.156133	-0.433143	-0.122073	0.065387	-0.183828
OMIM:615887	-0.567516	0.175954	0.253899	0.359927	0.228112	-0.586616	-0.464053	0.423856	0.988735	0.237168	0.269261	0.108267	-0.909105	0.094182	0.622316	-0.024085	-0.382274	-0.238482	-1.01512	-0.231856	0.913061	0.073308	-0.924553	0.363862	-0.134823	0.224239	0.053196	-0.150958	-0.31777	-0.697743	1.32642	-0.143298	-1.00947	0.002173	-0.5119	-0.743485	0.177388	0.202288	-0.621913	0.403401	1.02778	0.369815	-0.031681	0.228584	0.174303	-0.479718	-0.448128	-0.297258	-0.844388	-0.417152	-0.590668	-0.421881	-1.31826	0.571468	-0.472638	0.344821	-0.784821	0.348445	-0.706525	-0.532914	0.671863	-0.619957	-0.20618	-0.596158
OMIM:601450	0.427661	0.414968	1.17681	0.018568	-0.02659	-0.261063	1.33558	0.450413	0.69629	-0.165295	0.174405	0.141384	0.09203	-0.809261	-0.271514	-0.49427	-0.183999	-0.084204	0.263414	-0.668113	-0.889787	1.0047	0.069246	0.058364	0.083423	-1.00143	-0.57577	0.374365	-0.664672	-0.304802	1.05161	1.62861	-1.33027	-0.532631	0.144738	0.260082	0.448455	-0.544861	0.164416	-0.381811	1.2479	0.517594	-0.665981	-0.549668	-0.270121	0.174083	-0.607212	-0.660994	-0.135335	-0.077363	0.68384	-0.224187	0.174768	0.628267	-0.105683	-0.305131	0.39165	-0.327991	-0.155555	0.485175	0.304052	-1.14366	0.560699	-0.139951
OMIM:601453	-0.159453	0.198882	0.559885	0.144911	-0.394424	-0.864854	-1.14982	-0.070992	1.09349	0.344439	0.145739	-0.377409	-0.833667	0.380582	0.750105	-0.140816	-0.305714	0.469322	-0.62102	-0.154412	1.0045	-0.238797	-0.689922	-0.07383	0.066659	0.207344	0.020009	0.222216	-0.126686	0.38426	1.05382	0.254466	-0.826499	0.038563	0.019239	0.126013	0.463656	0.478794	-0.462238	-0.00733	0.588931	-0.145476	-0.414666	0.66297	-0.362334	-0.370457	0.316031	-0.041189	0.014468	-0.39243	-0.6982	-0.358502	-0.33362	0.568738	-0.040752	0.319299	-0.493234	0.621101	-0.025415	-0.064078	0.326409	0.088164	0.651268	-0.699389
OMIM:615883	0.671978	-0.179548	0.559607	0.696678	-0.086169	-1.00215	1.05636	0.807341	0.211166	-0.020442	-0.070912	0.570585	0.172507	0.359975	-0.518956	-0.357555	0.297678	-0.163143	0.582977	0.348444	0.656296	0.240526	-0.168254	0.43008	-0.415535	-0.692672	-0.399086	0.845414	-0.688133	0.769123	0.248454	-0.281813	0.28459	-0.520682	0.901686	-0.362811	0.51243	0.984318	0.133329	-0.923094	-0.012136	0.705481	-0.728034	0.181962	0.255135	-0.023824	-0.55304	0.060063	-0.165199	-0.515774	0.599403	-0.793003	-0.454022	0.164295	-0.281128	-0.193289	0.933829	-0.23761	-0.901568	-0.438697	0.399611	-0.833898	0.371704	0.029052
OMIM:601457	0.587922	-0.185498	0.768344	0.682266	0.100992	-0.986159	-0.436429	0.540609	0.304114	-0.169003	-0.196872	-0.103884	-0.187396	-0.301214	0.144118	0.075048	0.31719	0.761068	0.285104	0.481508	0.039384	0.439146	0.263967	0.754202	0.630256	-0.638169	-0.076729	-0.172798	-0.359705	-0.660335	0.240102	0.251235	-0.442522	0.014242	-0.334414	0.493996	-0.236491	-0.225218	0.896356	-0.533471	1.02167	0.378963	0.699765	0.204819	-0.702017	0.685975	-0.339283	-0.451294	-0.357636	-0.598943	0.24629	-0.438461	0.413359	0.543992	-0.098043	0.378038	0.096891	-0.64735	0.095574	0.12285	-0.414552	0.066078	-0.412114	0.819772
OMIM:224410	-0.598795	0.758099	0.820284	-0.039084	0.471759	-0.912261	0.150075	-0.426924	0.590202	0.093704	-0.071964	-0.233835	0.274631	-0.617731	-0.333216	0.219718	-0.538026	-0.353525	-0.560832	-0.047814	-0.272085	-0.341996	-0.072211	-0.374996	-0.229392	-0.970945	0.383158	0.259538	-0.353865	-0.34311	0.088763	0.225922	-0.46247	-0.184547	-0.134445	0.553107	0.040945	0.567414	-0.889553	-0.004907	0.520534	0.21582	-0.362318	0.23441	-0.838094	0.510194	-0.938852	0.066795	-0.335749	0.026557	0.018969	0.023596	-0.469265	0.057594	-0.312646	-0.149193	0.118025	-0.554278	0.375348	-0.33699	-0.523508	-0.095554	0.239963	-0.627458
OMIM:615889	1.107	0.205853	0.501561	0.082267	-0.048816	-0.384417	0.026338	0.718462	0.157196	0.163221	0.359451	0.509321	-0.262891	-0.272652	-0.156265	-0.407426	-0.699168	0.545628	-0.203864	0.712751	-1.10332	-0.442558	-0.647244	-0.279986	0.050461	-0.279514	-0.379668	0.020304	-0.190868	-0.459498	-0.011259	0.17045	-0.916567	0.42585	-0.209608	-0.399449	-0.443067	-0.702109	-0.447666	-0.306399	0.667159	0.005074	-0.195169	0.83884	0.515419	-0.453172	0.467725	0.335927	0.226203	0.288614	0.213228	-0.638203	0.454181	0.205525	0.735345	1.16139	0.441098	0.126365	0.783141	-0.406165	0.281444	-0.020186	0.34453	0.4167
OMIM:615888	-0.44628	0.565058	0.314694	0.047314	-0.16834	-0.864809	0.353286	-0.281687	1.00243	0.235951	-0.598532	0.361228	-0.877081	0.541359	0.523253	-0.628679	-0.141543	0.125404	0.02974	-0.158851	0.166774	-0.143972	0.024722	0.815348	-1.00726	0.295985	-0.690128	0.145762	-0.910256	-0.305017	-0.078783	0.444321	-0.932278	0.416648	0.021312	0.14987	0.233104	-0.713383	-0.17931	-0.143779	0.351741	0.837639	0.055273	-0.432498	-0.560745	0.231443	-1.0159	-0.001364	-0.550631	-0.038456	-0.737112	-0.980858	0.507378	-0.117292	-0.140215	0.316862	-0.179956	-0.267252	0.198652	-0.347881	0.167115	-1.02009	0.683255	0.095606
OMIM:141800	-0.609619	0.186827	0.023784	0.56208	-0.072743	-0.364378	-1.21546	-0.456948	0.164377	-0.253537	-0.417945	0.09257	-0.45349	0.922817	0.050788	-0.468872	0.464332	-0.59284	-0.11038	0.947783	0.201303	0.386444	0.133835	1.20997	-0.352699	-0.364589	-0.743081	0.889232	-0.21291	-1.12477	0.107027	0.256093	-0.292637	0.017715	-0.211248	-0.267963	0.555975	0.575739	-0.042099	0.05747	0.77189	0.07835	0.292456	0.56272	-0.630964	-0.136813	0.019188	-0.142087	-0.500545	-0.206487	-0.164156	0.027855	0.621721	-0.231456	0.05392	0.006149	-0.135753	0.140907	0.397166	0.392256	-0.030566	-0.951966	-0.335608	0.83115
OMIM:612353	-0.964077	0.589997	1.32839	-0.085001	0.148585	-0.042646	-0.873204	0.255522	-0.23861	-0.35145	-0.558001	0.228977	-0.189059	0.68753	0.191489	-0.149444	-0.37579	0.159212	-0.561358	0.435238	0.428035	-0.130395	0.326298	0.618961	-1.19298	-0.284395	-1.0604	1.08602	-0.52359	-0.116026	1.11706	-0.10036	-0.474274	0.383501	-0.061743	-0.303687	0.568713	-0.063227	-0.248372	0.003772	0.324614	0.013277	0.029923	0.52595	-0.692097	0.10476	0.688284	-0.086051	0.261551	-0.839285	-0.203737	-0.516108	0.104227	0.081337	-0.215854	0.231243	0.259232	0.563613	0.162015	0.316122	-0.213383	0.098991	0.695403	0.37076
OMIM:612350	-0.298838	0.328768	0.864105	0.79008	-0.241957	-0.36144	0.266104	0.74918	0.02981	-0.014801	-0.290382	-0.533209	-0.378245	0.283233	0.144852	0.199434	-0.599963	0.008287	-0.187897	-0.073129	0.107584	0.791836	0.068604	-0.090921	-0.136699	-0.182511	0.01831	0.365851	-0.758343	0.251782	0.818649	0.508202	-0.680278	-0.171296	-0.022401	-0.059432	0.291048	0.153053	-0.73622	-0.379161	0.380517	0.328514	-0.708319	0.268177	-0.625276	-0.37819	-0.412336	-0.000827	-0.697823	-0.541493	0.277426	0.660665	-0.745213	0.722867	0.12168	0.162596	0.947245	-0.442362	-0.190906	-0.120662	0.407882	-0.754976	0.121126	-0.05378
OMIM:612356	-0.072414	0.213903	0.490323	0.088236	-0.164233	-0.40235	-0.581011	-0.471185	0.294011	-0.482512	-0.208018	0.63301	0.616659	0.018204	-0.196908	-0.554316	-1.05535	-0.082721	-0.694515	-0.130827	0.220201	0.094973	0.825795	1.03623	-0.191102	0.122454	-0.712511	0.501333	-0.493585	0.25963	0.656567	0.083711	-0.218379	0.610171	0.240648	-0.474442	-0.602153	-0.227862	-0.585743	1.08102	-0.675591	0.539038	0.608359	-0.114363	0.160121	0.138857	-0.969198	-0.304079	0.455757	-0.629306	-0.344277	-0.688956	-0.096707	0.300405	-0.296897	1.06294	1.29872	0.083661	0.475385	0.317373	0.291709	-1.19204	-0.842706	0.549253
OMIM:225320	0.260012	-0.213392	0.707387	0.228745	-0.232056	0.226355	-0.54849	0.208221	-0.264066	-0.116594	-0.231114	-0.665766	-0.422971	0.114189	0.929817	-0.422419	-0.049295	-0.197713	-0.796357	0.07854	0.04228	0.263845	0.500433	0.467796	0.815691	-0.183419	-0.741697	1.15682	-0.274792	0.521984	0.725596	-0.357805	-0.044853	-0.23329	0.449838	-0.210417	1.13832	-0.210257	-0.53299	0.614469	0.652757	-0.247823	-0.34302	0.172991	-0.045366	1.02454	-1.17926	0.356148	0.219737	-0.315902	-0.889649	-0.043059	-0.840742	0.15042	0.032521	0.05327	1.11966	-0.469777	0.079686	-0.531613	0.15362	-0.212574	1.42011	-0.126165
OMIM:300633	0.483302	0.677887	0.377252	0.386467	0.567417	-0.312138	0.352112	-0.636404	0.406537	-0.280712	-0.435243	0.055035	0.089232	0.033311	-0.386184	0.010726	-1.06881	0.074551	-1.30018	0.834755	0.125896	-0.793059	-0.440865	-0.40332	-0.647531	-0.683303	-1.07766	0.129165	-0.11341	-1.09357	0.85172	-0.6765	-0.995371	-0.154495	-0.01058	0.465097	0.598393	0.027014	-0.740941	0.588295	0.53564	0.681513	-0.408917	-0.273148	-0.299756	1.04986	0.236347	0.091284	0.166589	-0.746935	-0.535829	-0.501848	0.012885	-0.368073	0.814761	0.126262	-0.067917	0.14536	0.936615	0.336904	-1.01879	-0.02277	0.045046	-0.338773
OMIM:146600	-0.848554	0.111068	0.720942	-0.022711	0.050441	-0.114277	-1.17322	-0.004746	-0.265809	-0.600262	-0.755201	0.250183	-0.790286	0.166898	0.126708	0.195532	0.064387	0.113684	-0.568893	0.887492	0.594107	0.079486	0.341232	0.776704	-1.03954	-0.219788	-1.28898	0.78773	-0.386932	-0.071953	0.45509	-0.045187	-0.510663	0.467787	-0.110441	-0.285589	0.311272	0.14128	-0.196217	-0.244014	0.593319	-0.127626	-0.259897	0.606517	-0.717397	-0.087491	0.949492	-0.07591	0.25496	-0.622035	-0.337838	-0.489875	0.193987	0.299571	-0.324357	0.38436	0.106756	0.430836	0.398806	0.318881	-0.394526	-0.233714	0.361055	0.389894
OMIM:613339	0.782088	-0.05931	0.700968	-0.130885	-0.463603	-0.873418	0.187027	0.57835	-0.136381	0.060546	-0.497924	-0.295399	-0.793668	0.282422	0.141918	-0.456266	-0.486415	0.146095	-0.6075	0.906749	0.035742	0.48969	-0.806258	0.541916	0.417804	-0.328293	-0.031481	1.22439	0.211801	0.540599	-0.11941	-1.00937	-0.779445	0.342816	0.067798	-0.784821	0.364622	0.520636	-0.593481	0.014023	0.305428	1.0071	-0.324501	0.992142	-0.299178	0.375479	-0.662726	0.509852	0.021885	0.51068	0.149929	-0.199275	-0.07724	-0.070676	0.626214	0.782889	0.751369	0.855632	0.821088	0.279592	0.254594	-0.164121	0.081035	0.582017
OMIM:300636	0.326317	0.251491	0.184368	0.914524	-0.168637	-0.610537	-0.695867	-0.230155	0.332729	0.289866	0.268148	0.068911	-0.44885	0.707925	0.007163	0.482572	-0.508886	0.148512	-0.153386	0.786186	-0.15532	0.169588	0.070714	1.04154	0.229107	-0.22585	-0.529549	-0.086921	-0.423418	-0.035416	0.538817	-0.805993	-0.920892	-0.363498	0.458018	0.413437	0.026445	0.750405	0.395371	-0.561496	0.720159	-0.140537	1.06674	-0.267571	-0.332496	0.623922	0.06289	-0.763888	-0.141719	-0.352459	-0.918364	-0.670006	-0.143018	-0.011387	-0.447586	0.997224	-0.250887	-1.35406	0.394091	0.497362	-0.3489	0.040483	-0.572337	0.533048
OMIM:150250	-0.625623	0.310825	0.792063	-0.122889	0.381349	-0.860586	0.856252	0.115421	0.357304	0.041369	-0.334578	-0.417132	0.171302	-0.175309	-0.614557	-0.252595	-0.765491	0.136313	-0.53812	-0.051478	-0.353986	-0.012212	-0.143833	-0.096475	-0.329756	-0.480534	-0.023735	-0.450502	-0.231153	0.436622	0.307101	-0.057689	-0.088177	-0.207407	-0.15535	0.212464	0.246732	0.215245	-0.126913	-0.076316	0.61267	0.015793	0.106978	0.3156	-0.60147	0.336931	-0.830632	0.1264	-0.251126	-0.267153	0.130051	0.127787	-0.564853	0.48207	-0.693639	-0.497647	0.625511	-0.392097	-0.017063	-0.321722	-0.193074	-0.314846	0.062437	-0.056944
OMIM:613330	0.282355	0.233574	0.416456	0.086137	-0.175033	-0.634016	-0.165207	0.357842	-0.131619	0.192181	-0.41756	-0.252746	-0.044897	-0.085387	-0.115772	0.332104	0.2025	-0.074204	0.19237	0.268455	-0.849421	0.286751	-0.62969	0.016209	0.295567	-0.260945	0.161079	0.648261	0.301621	-0.120034	0.922753	0.317184	-0.016585	-0.246482	0.378723	-0.282286	0.421198	-0.303423	0.003016	0.071441	0.270561	0.569174	-0.120108	0.490103	0.682727	-0.013077	-0.052267	-0.36526	0.66391	-0.149979	-0.176957	0.001781	-0.180491	0.345159	0.169817	-0.509691	0.622223	-1.65282	0.291797	0.540569	0.082863	-1.12508	-0.088297	-0.507657
OMIM:227255	-0.571956	0.404565	1.17362	-0.208407	0.298539	-0.449109	0.554371	-0.690276	0.489475	-0.10311	-0.250052	-0.189242	0.296538	-0.521673	0.393016	0.066983	-0.79317	0.078612	-0.743999	-0.064019	0.116301	0.245932	0.392936	-0.599536	-0.321211	-0.158706	-0.247918	-0.402997	0.384861	-0.164735	0.018934	0.38888	-1.21082	0.323839	-0.79222	-0.040586	-0.129029	0.305071	-0.148828	-0.344113	0.185318	-0.611832	0.15965	0.239191	-0.558834	0.574112	-0.210507	-0.175964	-0.333688	-0.13376	0.010069	-0.509343	0.213405	0.600733	0.044184	-0.01738	0.707483	0.138657	0.335357	-0.157388	0.273425	-0.045699	0.895193	-0.043539
OMIM:228560	0.31593	-0.522407	0.650235	-0.477722	-0.80342	-0.526644	-0.971013	-0.483255	0.43775	-0.213943	-0.303167	-0.077232	-0.530757	-0.189031	0.317722	0.275632	0.023248	0.150909	0.349826	0.132823	-0.185806	0.777472	-0.260347	-0.119748	-0.205458	0.556588	0.376101	-0.060547	0.580184	0.63083	0.943984	0.290535	-0.304782	-0.017293	0.784602	0.01907	0.722246	0.347156	0.328537	0.055438	0.061082	0.230936	-0.064583	0.382283	-0.255749	0.656148	-0.337987	-1.06151	0.08479	-0.034303	-0.29091	-0.89549	-0.111257	0.258542	0.36302	0.272039	0.295899	-0.107657	0.005083	0.561343	0.616021	-0.769703	7.3e-05	-0.300941
OMIM:227250	-0.052876	0.843504	1.35218	0.625306	-0.315373	-0.750341	0.595194	0.692993	0.533671	-0.19985	-0.64646	-0.428851	-0.697372	-0.147851	-0.395967	-0.624511	0.209048	0.344461	-0.308804	-0.005649	-0.025878	0.099444	-0.079379	-0.766567	-0.890464	-0.528751	-0.304849	-0.233768	-0.349367	0.574802	-0.169873	-0.149997	-0.972965	-0.463819	-0.12599	0.586446	-0.575995	0.457312	-1.03687	-0.930527	0.606575	0.743575	-0.191767	-0.230937	-0.432837	0.268417	-0.139664	-0.365612	0.123227	-0.194995	1.01273	-0.290419	0.086281	0.404498	0.660812	0.718483	0.135665	0.207842	0.18055	0.176076	0.016437	-0.827101	0.432579	-0.227488
OMIM:172150	-0.533635	0.08158	0.190112	1.01915	-0.109627	-0.718421	-0.967464	0.145782	0.288942	-0.178327	-0.079939	0.082633	-0.005292	0.954681	0.713264	-0.798408	-0.237366	-0.13243	-0.098824	0.983715	0.323761	-0.459208	0.691757	0.690159	-0.124601	-0.766474	-0.473362	0.330666	-0.101115	-0.88053	0.981487	-0.132238	0.106141	-0.096634	-0.044554	-0.492695	0.003095	0.034361	-0.464562	-0.678789	0.575334	0.101503	0.110506	0.839386	-0.874565	0.080236	-0.002019	-0.23315	0.151099	-0.396733	0.11003	-0.363527	0.609087	0.336018	0.052254	0.44764	0.357046	0.377401	0.770309	-0.128811	0.142082	-1.12114	-0.769655	0.314915
OMIM:245800	0.679144	0.504458	0.503452	-0.097808	0.667911	-0.598689	0.832128	-0.041138	-0.116366	-0.188243	0.074049	0.026907	-0.252808	-0.058772	-0.719104	-0.668221	-0.837836	0.802601	-0.595173	1.34247	-0.5329	-0.429001	-0.421781	-0.240941	-0.072924	-0.220608	0.037216	0.833142	-0.227355	-0.025164	0.268681	-0.297148	-0.659926	-0.066707	0.073363	0.968418	0.531082	-0.390373	0.323255	0.263597	0.485077	0.111907	-0.482297	-0.082768	-0.098743	0.800737	0.534276	0.50283	0.307341	0.448124	0.514862	-0.535482	-0.0011	0.329322	-0.114668	0.602025	-0.208343	-0.123109	0.349603	-0.125532	-0.517265	-0.192564	0.445768	-0.158263
OMIM:175100	-0.256226	-0.071533	0.998049	0.262784	0.63346	-0.562966	-0.169149	-0.46904	-0.078526	0.267202	-0.005869	-0.215269	-0.494932	0.566702	0.112476	-0.59454	-0.048163	-0.488302	-0.143944	-0.130121	-0.016139	0.027138	-0.357528	0.071749	-0.472273	0.254584	-0.060442	-0.928321	0.067561	0.247039	1.25232	-0.249805	-0.792019	0.260373	-0.061643	-0.043753	0.680095	0.643341	-0.475727	-0.012171	0.733635	0.876574	-0.016243	0.627203	-0.019621	0.183758	-0.105564	-0.435125	-0.222285	-0.121506	0.908772	-1.02891	-0.442337	1.14436	0.004732	0.33834	0.033643	0.460252	-0.728799	0.071691	-0.105701	-0.046556	0.573937	0.620683
OMIM:612539	1.10514	0.128922	0.695418	0.007266	-0.811858	-0.516891	-0.169483	0.947851	0.03445	-0.182792	-0.996997	-0.500043	-0.574013	0.057812	0.0403	-0.306451	-0.38555	-0.076847	-0.201395	0.280785	-0.330779	0.322353	-0.320244	0.153297	0.430835	-0.117009	-0.018261	1.8064	0.492316	-0.154223	0.482297	-0.727345	-0.666519	0.054875	0.330523	-0.834753	0.771743	0.507483	-0.823124	-0.568754	0.445813	-0.193218	-0.703288	0.643167	-0.379261	0.057938	-0.526417	0.364189	0.175406	-0.051847	0.021414	-0.613479	-0.678336	0.306205	0.125878	-0.100107	0.873893	0.102944	0.283606	-0.343743	-0.282446	-0.018176	-0.141506	-0.049854
OMIM:616113	0.864195	0.146405	0.642939	-0.287674	0.452492	-0.541381	0.376037	0.173675	0.415046	0.682933	0.599523	0.544128	-0.745446	0.181416	-0.055082	-0.253161	-0.476271	0.304444	0.073752	0.22237	-0.697208	0.07296	-1.03963	-0.176842	0.109653	0.542438	-0.558634	0.798003	-0.468193	0.219834	-0.089788	-0.700389	-1.10251	0.531611	0.030833	0.581897	-0.339903	-0.307523	0.217123	0.499339	1.05873	0.09048	-0.445076	0.377618	0.42357	0.476935	0.147947	-0.377812	0.011282	0.292769	0.715413	-0.90959	0.246843	0.439091	0.553922	1.18334	0.110788	-0.305684	0.322048	-0.293132	-0.560166	-0.525066	0.21653	0.656382
OMIM:612530	-0.572866	0.915438	1.03981	-0.195904	0.029382	-0.547452	0.607156	-0.169684	0.406752	-0.030363	-0.525048	-0.197709	-0.142334	-0.5876	-0.40962	-0.413229	-0.371386	-0.226706	0.067578	0.3455	-0.218898	-0.005821	-0.002993	-0.456443	-0.673163	-0.758419	0.170946	0.413447	0.274975	-0.014782	0.3036	0.646584	-0.31792	0.109851	-0.297278	0.229244	0.404561	0.46589	-0.492866	-0.296248	0.489927	0.469282	-0.403834	0.306212	-0.952206	0.122521	-0.214082	0.054826	-0.418139	0.165925	0.892527	0.073379	-0.084014	0.701973	-0.05815	0.037135	0.461581	-0.078527	0.097161	-0.118012	-0.242276	-0.422691	0.597733	-0.115568
OMIM:613480	0.349491	-0.766614	0.795834	0.002136	-0.872855	-0.791517	-0.477665	-0.270111	-0.40977	-0.36573	0.236802	-0.704606	-1.02358	0.447392	1.09778	-1.01029	0.039	-0.350998	-0.273729	0.575658	0.580899	0.547807	-0.37859	1.31823	-0.105782	-0.411485	-0.200336	0.933501	0.084125	0.341246	0.948158	-0.257529	-0.009547	0.259722	0.417587	0.347289	1.15421	0.584087	-0.020038	0.341069	0.34021	0.14746	-0.235907	0.428429	-0.975531	0.616727	-0.607285	-0.158962	-0.063153	-0.150833	-1.02328	-0.861376	-0.0025	-0.552189	0.093051	0.106659	0.855702	0.367569	0.068649	0.042478	-0.579706	0.138242	0.859726	0.565407
OMIM:613485	-0.370794	0.65218	0.058469	0.372378	-0.757052	-1.12711	0.034672	-0.079216	0.439576	0.201756	-0.348196	-0.036017	-0.297608	-0.20078	0.184782	-0.411944	0.084597	0.539375	-0.363948	0.043477	-0.408717	-0.188142	0.830225	0.768041	0.528128	-0.21775	-0.6642	0.752727	-0.031073	0.31321	-0.258164	-0.756226	-0.214559	-0.05818	-0.178106	-0.939533	0.399152	-0.244774	-0.566841	0.200784	-0.782303	0.339623	-0.251904	-0.138665	0.178505	-0.348738	-1.13199	-0.48905	0.220376	0.073307	-1.14926	-0.940325	-0.171583	0.08872	-0.002011	1.02057	0.709699	0.073652	0.11006	-0.129173	-0.247658	-1.07589	0.428543	0.458545
OMIM:613489	1.01536	-0.317846	0.900935	-0.053498	-0.239694	-0.833169	-0.346081	-0.289931	0.256319	0.369194	-0.235043	-0.115604	-0.199541	-0.054296	0.003159	0.134274	-0.096616	0.253211	0.228615	0.696724	-0.191267	0.295603	-0.900081	0.264061	0.341767	0.630409	0.559424	0.795862	0.149696	-0.688135	-0.652616	-0.162562	-0.176112	0.075151	0.2334	0.455051	0.292645	-0.001302	-0.302033	0.22906	-0.189324	-0.160446	0.202031	0.443974	-0.106687	0.332515	-0.076449	-0.237351	0.231998	-0.191304	0.279063	0.031117	0.404171	-0.096093	-0.243551	0.31717	0.194555	-0.148559	0.366683	0.092005	-0.044397	-0.302431	0.290344	0.251588
OMIM:613488	0.097094	-0.407647	0.670239	-0.417558	-0.704678	-0.606054	-1.22216	-0.055372	-0.317882	-0.955967	-0.336283	-0.529323	-0.328182	0.593053	0.349751	-0.23719	-0.169725	-0.544213	-0.400056	0.462939	-0.788226	0.340264	0.122116	-0.026647	0.325902	-0.710351	-0.131021	0.794786	-0.171095	0.558488	0.515659	-0.391113	-0.219312	0.633023	1.23969	-0.768055	1.22945	0.817492	-1.0133	0.230649	0.381017	0.601455	-0.00856	0.685354	-0.112788	1.00561	-0.634266	-0.18344	0.901636	-0.030298	-0.426013	-0.843367	0.197744	0.089304	0.150135	0.064189	0.254072	0.733045	0.653102	0.444768	0.448472	0.039089	0.392033	0.189211
OMIM:302350	-0.134425	0.481026	0.524429	-0.27034	-0.262318	-0.836199	-0.228163	1.2014	-0.121737	0.254314	-0.003427	-0.209728	-0.065427	0.040166	-0.088957	-0.919244	-0.736282	0.750438	-0.654051	0.018995	-0.193121	-0.310773	-0.683847	0.10558	-0.325918	0.108518	0.400018	-0.325552	-0.014254	-0.372797	0.691998	-0.007045	-0.144777	-0.317649	-0.206925	0.21595	0.235787	0.138688	0.206954	-0.424056	-0.289683	1.01111	-0.449325	-0.238951	-1.09168	0.485513	-0.49031	-0.194442	-0.227106	-0.141377	0.446198	0.21442	-0.657949	0.327337	-0.438054	0.074265	-0.153074	-0.253267	-0.06075	-0.353182	0.358653	-0.921808	0.83259	-0.362423
OMIM:600496	0.281459	0.627436	0.04341	0.861878	-0.128763	0.053898	0.236216	-0.435912	0.352728	0.656612	-0.537969	0.615049	-0.128405	0.65773	0.126601	0.01846	-0.730402	-0.296407	-0.015873	0.18302	0.828259	0.344189	-0.36441	0.693941	-0.433182	-0.442459	-0.674477	1.01349	-0.880018	-0.455335	0.424455	-1.21156	-1.16015	0.249689	0.813226	0.636239	0.507581	0.296122	0.187654	-0.243064	0.879296	0.980118	0.648138	0.553807	-0.401588	0.120874	0.093902	0.444547	-0.188178	0.087532	0.474874	-0.632111	0.060279	-0.339988	0.503368	0.271747	0.317425	0.284363	0.56859	0.485861	-0.395872	-0.801183	0.114312	-0.059161
OMIM:600325	-0.18207	0.557831	1.09325	0.525456	0.085509	-1.168	0.604851	0.033221	0.520597	-0.192284	-0.502989	-0.330811	-0.639239	-0.544591	0.103906	-0.346781	-0.663113	0.24481	-0.121794	0.137257	-0.021852	-0.165783	-0.24052	-0.262915	0.067902	-0.646119	0.605016	-0.101541	-0.131448	0.516238	0.69053	0.321904	-0.223979	-0.153105	-0.120897	0.774586	-0.49638	0.201264	-0.251484	0.02308	0.532493	0.362182	-0.10196	0.150409	-0.623357	0.043241	-0.083589	-0.007911	-0.332834	0.114237	0.210746	-0.294449	-0.234706	0.337055	-0.232869	-0.07834	0.022222	-0.407256	0.210736	0.36288	0.218734	0.09671	0.541429	-0.46855
OMIM:600329	0.798566	0.484817	-0.086731	0.133122	0.036247	0.010796	-0.753149	0.000465	1.29391	0.478166	-0.268091	0.81263	0.284365	0.096394	0.525359	0.268296	-0.658364	0.51379	0.062961	0.145162	-0.426154	-0.822588	-0.412616	0.368208	0.561767	-0.424195	-0.013615	0.422121	-0.981654	-0.436051	0.612889	-0.137014	-1.2658	0.530113	0.11312	-0.478184	0.544418	0.092011	-0.101558	-0.080234	0.996824	0.673546	0.025772	0.689629	0.442097	-0.447489	-0.389207	-0.562992	0.245572	-0.319022	-0.488529	0.343926	0.605867	0.490146	-0.141007	-0.157867	0.051076	0.417898	0.61937	0.225078	0.871663	0.564037	-0.293472	-0.177501
OMIM:607313	0.445345	0.139657	1.34971	1.18948	-0.356256	-0.518815	0.250317	1.07555	0.754458	0.099277	0.749351	-0.510698	-0.59546	0.264986	-0.020202	-1.10162	-0.083544	0.083361	0.057551	-0.216425	0.103578	0.255557	-0.389014	0.281795	-0.576547	-0.676995	0.384501	-0.093341	-0.666473	-0.217835	-0.024175	0.037426	-0.938822	-0.253306	0.097759	-0.731777	-0.422578	-0.0486	0.004917	-0.633435	0.193984	0.789259	-0.455732	0.432845	0.35193	-0.048647	-0.350522	-0.122973	0.636681	-0.714506	0.45331	0.618765	0.228149	0.647898	0.388191	0.55422	1.29296	0.074194	0.945768	0.061263	0.018676	-1.05163	0.051738	-0.18563
OMIM:218100	0.082393	0.156708	1.41873	0.69275	-0.121242	-0.506925	0.516822	1.05768	0.640166	-0.40293	-0.080046	-0.695532	-0.820549	-0.565142	0.08922	-0.661133	-1.04608	-0.525233	0.720074	-0.165831	-0.379184	-0.174835	-1.09087	0.254451	-0.953321	-0.241162	-0.090697	0.870994	-1.46934	-0.544294	0.345948	-0.204791	-0.757443	0.212738	-0.357786	0.035437	-0.341192	-0.141096	-0.299003	0.068607	0.203718	-0.294295	-0.34376	-0.751366	0.877412	0.410117	-0.647856	-0.405546	-0.375667	0.186803	0.122556	-1.33745	-0.455168	0.310545	-0.796625	0.054714	0.069121	0.571582	0.518222	-0.112143	-0.043263	-0.441257	0.544328	-0.054203
OMIM:607644	0.056216	-0.016752	0.366866	0.434604	0.070526	-0.208934	-0.368014	-0.161646	0.228196	-0.215728	-0.842443	0.148643	-0.411657	0.7049	-0.093513	-0.514043	-0.225995	0.030869	-0.407545	0.338477	0.285023	0.170866	-0.057266	0.089498	-0.148213	-0.282354	-0.576562	0.188531	-0.552819	-0.522826	0.513045	-0.471324	-0.816184	0.593335	0.206396	-0.252116	0.240272	0.292269	-0.467397	-0.236724	0.195222	0.582461	0.217602	0.20934	-0.523819	0.737933	0.220413	-0.031404	0.226576	-0.287706	0.056644	-0.270688	-0.125973	0.501981	-0.62974	0.402046	0.106355	0.170083	0.335539	0.662959	-0.77764	-0.344075	0.522173	0.144958
OMIM:607317	0.730724	0.256421	0.81497	-0.249305	-0.147807	-0.31024	-0.23982	1.3031	0.00223	0.10447	-0.241021	0.029387	-0.154895	0.231702	-0.61648	-0.98142	-0.526706	0.220885	0.246603	0.562485	-0.449496	-0.136565	-0.321369	0.512815	-0.046037	-0.680185	-0.693825	0.7294	-0.431752	-0.653024	-0.319421	-0.281955	-0.693093	-0.545423	0.079581	-0.095162	-0.159592	-0.079468	-0.404346	-0.173398	0.389411	0.186783	-0.451569	0.610123	-0.031257	-0.151229	-0.219141	0.330741	0.43788	0.368581	0.858508	-0.221317	-0.165186	0.35576	-0.045394	0.759843	0.84557	0.688295	0.285224	-0.320822	0.082474	-0.096912	0.281567	0.08893
OMIM:201310	-0.674557	0.99565	0.441352	0.639547	0.154918	-1.53159	0.000166	0.178235	-0.059747	0.313491	-0.848212	0.225409	0.020664	0.793051	-0.952734	-0.749823	-0.784455	-0.533278	-0.920258	0.703356	0.127889	-0.517773	0.320279	-0.167212	-0.02314	-0.802411	-0.143954	0.694177	-0.374929	-0.359673	0.548541	-0.370326	0.530694	-0.664311	0.186611	-0.072456	0.296589	0.735713	-0.71471	0.189257	-0.031726	-0.111823	0.587119	0.300742	-0.685526	0.392842	-0.337191	-0.274289	0.646895	-0.013359	-0.668903	-0.246277	-0.568549	-0.069799	-0.302134	-0.21533	0.39337	0.203443	0.387116	0.290329	-0.54663	0.805739	0.457864	-0.487929
OMIM:301940	-0.313395	0.416084	-0.425534	0.240472	0.490204	-0.728717	0.135018	0.285704	0.317444	0.125975	-0.54587	-0.2507	0.097903	1.20465	-0.625057	0.026758	-0.847282	0.597779	-0.320192	0.642958	-0.644791	-0.063874	-0.243005	0.41387	-0.341797	-0.601021	-0.52452	0.924181	-0.376089	-0.651301	1.51452	-0.524928	-0.616694	-0.156049	-0.115433	0.25254	-0.079387	-0.219419	-0.101503	0.194268	1.02586	0.454004	-0.889674	-0.226273	-0.651026	0.190488	-0.932059	0.038931	0.091965	0.550058	0.690238	-0.331026	-0.662512	1.08944	-0.463587	-0.959852	0.318291	0.246515	0.035996	-0.037422	-0.484365	-0.605886	-0.521766	-0.089224
OMIM:119915	0.194997	-0.846565	1.45035	-0.274507	0.066257	-0.187153	0.693932	0.5409	0.277427	-0.055327	0.005447	0.184595	-0.498717	0.151288	-0.252757	-1.45457	-0.492656	0.218565	0.14546	1.08528	0.242292	0.713917	-1.09357	0.619778	-1.26327	-0.075736	-0.234225	0.022733	-0.442	-0.176678	0.83315	0.220536	-0.802705	-0.325593	0.536215	0.116419	0.680607	0.203657	0.048427	-0.075752	-0.332831	1.28163	0.06698	-0.568477	0.022529	-0.356833	-0.060186	-0.036356	-0.298343	-0.741025	0.1705	-0.239389	0.564219	-0.309357	0.208946	0.165079	0.962095	0.532819	0.240885	0.087554	0.138481	0.22881	0.542053	-0.103207
OMIM:232240	0.365518	0.518901	0.154659	0.627	0.281403	-0.494618	-0.180142	-0.253612	0.394325	-0.087805	-0.593955	0.367249	-0.199964	0.353126	-0.258383	-0.365721	0.13167	-0.444033	-0.376595	0.698891	-0.545028	0.340876	-0.137985	0.755416	0.128456	-0.085263	-0.689796	0.609121	-0.975065	-0.409452	-0.204181	0.049194	-0.114254	-0.060955	0.382812	0.15718	0.200601	0.397864	0.290993	0.741281	-0.01627	0.335428	0.481567	0.103616	0.021185	0.692431	-0.655858	-0.302531	-0.079121	-0.417996	-0.398444	-0.804742	-0.519009	0.064816	1.28392	0.713164	-0.372223	-0.203795	0.260196	0.472588	0.073182	-0.58071	-0.325081	0.688105
OMIM:112270	0.886958	-0.860422	0.985505	-0.502396	-0.125564	-0.719028	-0.425572	0.511658	0.04496	-0.210632	-0.149709	-0.685994	-0.523456	0.142224	0.086816	0.205498	-0.329074	0.035104	-0.725394	0.553077	0.480432	1.16955	-0.95848	-0.001777	0.603986	-0.38624	0.219369	0.838591	0.052091	0.398962	0.280066	-0.446831	-0.179324	0.382687	0.578861	-0.672163	1.14925	-0.21305	-0.388732	-0.137232	0.672343	0.704083	0.019638	0.937545	-0.530676	0.671654	-0.528758	0.176669	0.154901	0.132839	-0.237735	-0.442618	0.076716	-0.654624	0.03874	-0.091635	0.895368	0.412132	0.202859	0.255163	0.015345	-0.131976	-0.355566	0.475757
OMIM:610688	0.889085	-0.033828	0.538984	-0.01825	-0.48559	-0.998343	-0.066066	-0.604474	-0.048948	0.129077	-0.697586	0.139622	0.03303	0.070653	-1.20112	0.28245	-0.161238	-0.307721	-0.062086	1.00688	-0.157362	0.614771	-0.805933	-0.086605	0.510481	0.042565	0.318201	1.13005	0.454406	-0.641806	-0.446679	-0.316886	-0.559417	-0.277087	0.124474	0.099949	-0.003702	-0.149931	-0.491359	0.295155	-0.087031	0.348108	0.590681	0.411543	0.238093	-0.053239	0.168093	0.263146	0.924784	0.038867	-0.150193	-0.469752	0.010061	0.047782	0.036253	0.86123	0.451777	-0.308299	0.067133	0.403592	-0.575517	-0.337584	0.529063	0.613678
OMIM:610687	0.925704	-0.554602	0.907038	-0.16563	-0.416239	-0.647663	-0.272345	0.587094	-0.116926	0.038743	-0.680532	0.107218	-0.892362	0.090217	0.635277	-0.139687	-0.547573	0.108236	1.37282	0.735405	0.243436	0.746797	-0.404248	0.070991	-0.162704	0.352849	-0.286426	1.05409	0.923867	0.898767	-0.341547	-0.874203	-0.429211	0.153368	0.311188	-0.659137	0.651973	0.054245	-0.160286	0.068253	0.880069	0.150198	-0.357094	0.412387	-0.726091	0.357681	-0.700476	0.065933	-0.64327	0.235983	-0.106216	-0.06234	-0.514304	0.080408	0.036454	0.344426	1.10135	-0.394296	-0.138601	0.577055	0.11146	-0.633655	0.04211	-0.134922
OMIM:610682	0.475358	-0.081245	0.40587	-0.03438	0.126201	-0.383386	-0.639836	-0.130529	0.134133	0.115116	-0.231177	0.263475	-0.208748	-0.76607	-0.007349	0.407888	0.001479	-0.190746	-0.211223	-0.048715	-0.44134	0.637816	-0.368617	0.124998	0.622012	-0.421309	0.798472	-0.035896	-0.245678	-0.051328	-0.025409	0.351641	-0.122504	-0.144906	0.357243	-0.667667	0.531295	-0.385821	0.177523	0.085	0.088578	0.277698	0.419084	0.316314	0.196042	0.202325	-0.786619	-0.746848	0.913229	-0.204788	-0.891013	-0.283686	-0.974929	-0.053949	0.315102	0.206575	0.432777	-0.910974	0.237605	0.288479	0.326233	-0.851122	0.945573	-0.406459
OMIM:121350	0.760373	-0.850149	0.448968	-0.363813	-0.164575	-0.485467	-0.415777	0.475384	-0.214447	-0.140971	-0.210585	-0.44991	-0.655828	-0.025872	0.103087	-0.190472	-0.145766	0.22724	-0.510128	0.21434	-0.149911	0.864244	-0.400879	-0.122536	0.749284	-0.634833	0.198231	0.982406	-0.010769	0.292106	0.506327	-0.475173	-0.223815	-0.146817	0.843813	-0.357444	0.90645	0.164483	-0.941875	-0.006657	0.601573	1.01238	-0.368144	0.646084	-0.766735	1.13721	-0.867564	0.034325	-0.061754	0.092266	-0.796974	-0.596136	-0.12995	-0.007098	0.190178	-0.106678	1.08468	-0.1388	0.242749	0.481883	-0.093069	-0.180375	0.08779	0.218749
OMIM:610680	0.172337	-0.228851	0.656696	0.005756	0.265029	-0.404034	-0.331288	-0.093304	0.482075	-0.174466	0.051966	0.224347	-0.273717	-0.631135	0.150526	0.415514	0.026189	0.036627	0.131288	-0.204599	-0.548947	-0.092876	-0.817893	0.082901	0.552998	-0.040879	0.099891	0.566812	0.33676	-0.003084	0.680373	0.422177	0.024117	-0.304665	0.579478	0.633812	0.715647	-0.579111	0.109729	0.515242	0.589826	0.490507	0.555639	0.62486	-0.3735	0.438882	-0.132868	0.277654	0.139195	-0.216435	-0.493986	0.216089	-0.121837	0.362913	-0.18301	0.287306	0.613339	-0.779398	0.051941	0.145853	-0.223209	0.01063	0.203116	0.196526
OMIM:236000	-0.216003	-0.22216	-0.199632	0.543676	-0.186948	-0.809999	-0.399904	-0.40035	0.183132	-0.118946	0.295395	0.652833	-0.195017	1.01813	0.920361	-0.582746	-0.214208	0.07937	0.103998	-0.283683	-0.497057	-0.828907	0.661987	0.723447	-0.076418	-0.25683	-0.995876	-0.302614	-0.95187	-0.006289	1.31145	-0.406703	-0.539312	0.305282	0.803875	0.384274	0.475881	0.477168	0.344638	-0.399152	0.533588	0.107384	0.768292	0.435604	0.438707	1.10956	0.082948	-0.35688	0.384858	-0.188681	-0.570679	-1.03063	0.510771	0.40074	-0.455657	1.22365	-0.289698	-0.027042	0.173682	0.199347	-0.097302	0.071799	-0.898884	0.512356
OMIM:223550	0.729443	-0.357978	0.302935	-0.041278	0.143507	-0.565956	-0.841512	0.281462	0.033006	0.251155	-0.112621	-0.412737	-0.998144	0.277063	0.190399	-0.193335	0.134709	-0.61871	-0.055532	0.102216	-0.401484	0.495061	-0.070086	0.255463	0.923732	-0.604724	-0.158794	1.20613	-0.26412	-0.040167	1.01892	-0.031995	-0.494723	-0.010544	0.846336	0.017633	0.755118	-0.466338	-0.629901	0.290313	0.58889	-0.012016	0.19456	1.0911	-0.598059	1.188	-1.38889	-0.674827	0.739752	0.056058	0.088755	-0.140031	-0.784175	-0.081542	0.48871	-0.345189	0.760877	-1.31505	0.113811	0.022231	-0.361856	-0.726175	0.935829	-0.630164
OMIM:180750	-0.298239	0.081454	0.677216	-0.519874	-0.304054	-0.70481	0.710454	0.386198	0.517659	-0.053006	0.209317	-0.398794	-0.391341	-0.399613	-0.341017	-0.667911	-0.244408	-0.117988	-0.19392	0.359685	-0.566721	0.492998	-0.327165	0.342823	-0.43925	-0.825618	0.345901	-0.127628	-0.327622	-0.833093	0.419865	0.652368	0.034955	-0.350605	0.431593	-0.123667	0.342211	-0.36842	0.003318	-1.04001	-0.310999	0.562384	-0.159864	-0.219007	-1.21986	0.065106	-0.262686	-0.046515	-0.665813	0.34292	0.105618	0.135615	-0.903574	0.855696	-0.772512	0.248886	0.930628	-0.415513	0.727173	-0.328494	0.552818	-0.824616	0.043238	-0.743917
OMIM:614202	0.272016	1.04351	1.00373	-0.197897	-0.275392	-0.512478	-0.19361	0.543786	0.022274	0.168685	0.229072	-0.032876	-0.411077	-0.312904	0.263172	-0.222304	0.117784	0.230989	-0.411803	0.161188	-0.044027	0.405991	-0.445018	-0.171133	-0.721635	-0.035423	0.043969	0.365123	-0.016218	0.074272	-0.382682	0.79441	-1.19651	-0.044376	0.544303	0.723716	-0.111976	0.505118	0.217322	-0.211583	0.201955	0.146669	0.315603	0.166184	-1.1103	0.33237	0.015576	-0.766655	-0.263334	-0.286273	0.415988	0.285653	-0.36668	0.097479	0.38474	0.611093	0.027508	0.205057	0.416766	0.570944	0.501572	-0.746047	0.761443	-0.191184
OMIM:614203	1.00354	0.321429	-0.093796	-0.17225	-0.222297	-0.721777	-0.14643	0.722478	-0.297028	-0.575734	-0.329483	0.317357	-0.192032	0.169121	-0.645678	-0.487022	-0.190565	0.130292	-0.344571	0.301803	-0.492714	0.368611	-0.455204	-0.010254	-1.06767	-0.220797	-0.75087	1.00818	0.208269	0.224044	-0.385619	-0.646005	-0.852326	0.452642	0.025995	-0.616042	-0.197969	0.620691	0.029186	0.019771	0.261824	0.597463	-0.577089	0.602254	-0.496586	0.401698	0.40603	-0.194334	-0.022852	0.795048	0.200678	-0.796305	-0.480868	-0.133613	0.515856	1.54644	0.088353	-0.206402	0.539187	-0.304845	0.128224	-0.726263	0.21673	0.336695
OMIM:600145	0.158885	-0.251221	1.01463	0.000677	0.044075	-1.6055	-0.411074	0.088221	0.64238	-0.476542	-0.699733	-0.314487	0.142254	0.478031	-0.522834	0.548521	0.053581	0.289718	-1.44085	-0.037232	-0.052592	0.137425	0.059073	-0.340269	-0.075332	-0.469688	-0.159342	-0.618072	-0.596789	-0.543872	0.459996	-1.28275	-0.108472	-0.3545	0.095416	-0.562927	-0.200286	-0.014275	-0.370186	-0.453899	1.07854	-0.077004	0.4473	0.161267	0.116709	0.909934	0.303671	-0.622931	0.293162	-0.773139	0.529016	-0.422386	0.256293	1.11226	0.134959	-0.256176	0.569797	-0.168721	-0.22099	0.371255	0.056201	0.411828	-0.526884	1.59786
OMIM:600146	1.13098	0.774134	0.600053	0.402389	-0.51677	-0.501745	-0.05218	0.593198	0.755686	-0.597849	-0.856322	0.283954	-0.397932	0.152706	-0.258083	-0.581828	-0.247795	0.617648	-0.380703	0.485407	-0.564612	-0.153803	-0.131287	0.356348	-0.732233	-0.079293	-0.87389	0.930085	-0.732491	-0.146942	-0.174005	-0.447824	-1.14137	0.506976	0.298169	-0.664704	0.032065	0.217582	-0.453644	-0.797248	0.283084	-0.32469	-0.412773	0.089479	0.210089	1.11389	0.65745	0.011977	0.243757	-0.093224	0.179066	-0.613595	-0.5482	0.228162	0.312855	0.196591	0.025151	0.137762	-0.002371	-0.223781	-0.610631	-0.215586	0.21392	0.554979
OMIM:128980	0.558484	-0.568493	0.437922	-0.905929	-0.059328	-0.641025	-0.316317	0.201605	0.9354	0.604341	0.503446	-0.207295	-0.196592	-0.511447	-0.551085	0.489801	-0.631927	-0.055232	0.104427	0.627812	0.039283	-0.053441	-1.1934	0.330144	-0.019142	-0.011318	-0.098225	-0.166002	-0.075448	-0.43294	1.24176	-0.672823	0.297967	-0.195212	0.275984	-0.443182	0.301954	-0.043412	0.512715	-0.379755	1.23764	0.074524	-0.276579	0.361307	0.197528	0.183076	-0.833385	-0.523874	-0.371825	0.511844	-0.395044	-1.21293	-0.272893	0.190237	-0.475051	-0.104933	0.731594	-0.144155	0.729635	-0.791453	-0.126488	-0.616156	0.554268	0.065308
OMIM:600142	0.166961	0.727834	0.395746	0.275006	0.188914	-0.745656	-0.211656	0.072653	0.091542	0.049591	0.087337	-0.312915	0.105538	-0.201187	-0.998205	-0.724377	-0.666858	0.887739	0.00565	0.596569	0.285303	0.090141	0.195606	-0.046618	-0.777404	-0.078812	-0.887918	0.192532	-0.515186	-0.186505	-0.232531	-0.96537	-0.862692	0.157909	-0.056042	0.082938	-0.563594	0.172914	0.639506	-0.858837	0.467133	0.652888	-0.50202	-0.032386	0.48099	0.086311	0.189131	-0.236352	0.579822	0.900526	0.262668	-0.11887	0.323625	-0.226194	-0.191615	1.0505	-0.019758	-0.945406	0.415121	-0.340664	-0.174801	-0.902214	0.73442	0.142658
OMIM:600143	0.623402	0.812515	0.507485	-0.111616	-0.082074	-0.173608	0.575721	0.545774	0.36175	-0.186096	-0.408428	0.693648	-0.369429	0.344146	0.043227	-0.480413	-0.866879	0.720461	0.419943	0.580234	0.229148	-0.778488	0.129226	0.49178	-0.424079	0.01954	-0.06791	0.045004	-0.686435	0.367355	0.153425	-0.011043	-1.07536	-0.179062	0.205371	-0.377324	-0.403901	-0.420604	-0.509052	-0.451549	0.702215	0.799394	0.503668	0.68144	-0.075635	-0.45514	0.086273	0.02272	0.170979	0.542444	0.634878	0.026678	0.532326	0.732257	0.173585	1.465	0.054287	0.221701	0.306699	-0.220892	-0.305894	-0.244293	0.206837	0.046875
OMIM:614201	0.242485	0.728792	0.089279	-0.19487	0.075631	-0.417792	-0.22344	-0.896593	0.339799	0.572377	-0.293392	0.104831	-0.719282	0.940951	0.232702	-0.086663	-0.063689	-0.187682	-0.407924	-0.291047	-0.08775	-0.644192	-0.339143	0.971784	-0.911262	0.397681	-0.730628	0.062222	-0.251853	-0.270568	-0.131333	0.453023	-0.472158	0.490313	0.283723	0.802681	0.657723	-0.572942	-0.205366	0.382468	0.673314	0.521229	-0.207149	0.431965	-0.486121	0.205704	-0.8055	0.288028	0.132837	-0.26788	-0.357944	-1.21409	0.33295	0.217031	0.567724	0.535837	0.097078	0.158751	0.165925	-0.403223	-0.054462	-1.05048	0.799157	0.25167
OMIM:168820	0.181492	0.254675	0.787435	-0.004545	0.135311	-0.124586	-0.044261	0.008956	0.523869	-0.341097	-0.410025	0.517949	-0.263682	0.575309	-0.126743	-0.573906	-0.469882	0.024879	0.132246	0.317054	0.792678	0.143822	-0.216773	0.400719	-0.520967	-0.320979	-0.506384	0.955583	-1.21139	0.044223	0.909113	-0.213822	-0.850999	0.277582	0.239459	-0.273993	0.255301	-0.149122	-0.074414	0.133453	0.281521	0.611479	0.426247	-0.03987	0.089058	0.741862	0.009568	-0.687675	-0.103717	-0.281442	-0.077662	-0.045383	0.080745	0.186783	-0.146828	-0.160117	0.393876	-0.045847	0.241694	0.796636	-0.596571	-0.251034	0.252376	0.271951
OMIM:158800	0.432358	0.864381	1.14131	0.687007	-0.826435	-0.968472	0.351942	1.08134	0.221748	0.131236	-0.726238	-0.243303	-0.621352	0.4972	0.445269	-0.4097	-0.09081	0.4173	0.073905	0.492555	-0.509973	0.027998	-0.24157	0.078759	0.418365	-0.518788	-0.585125	1.13132	-0.263196	0.309318	-0.117901	-1.16913	-0.30404	0.044804	0.342024	-1.10365	0.48505	0.308996	-0.760521	0.085	0.172837	0.716166	-0.629871	0.572728	0.206303	-0.110393	-0.784481	-0.081782	0.003184	-0.02906	-0.919966	-0.667366	-0.345537	0.116026	0.660811	0.49729	0.530633	0.237695	0.425106	0.563999	-0.066246	-0.351369	0.085123	-0.201396
OMIM:610460	0.236846	0.083897	0.677419	0.008599	-0.186923	-0.116427	-0.489665	-0.143548	0.565068	-0.151458	-0.03801	0.619519	-0.276416	0.912416	0.191594	-0.71415	-0.985051	-0.283373	0.159074	0.317889	0.270391	0.12445	0.055612	0.633238	-0.43566	-0.537988	-0.383449	0.898141	-1.08706	-0.097506	0.708618	-0.029599	-0.667671	0.248165	0.370469	0.165839	-0.311196	-0.02741	-0.021528	0.02301	0.236152	0.506694	0.638644	-0.019317	0.153457	0.326342	-0.56442	-0.624786	0.322311	-0.079714	-0.41125	0.048289	0.380868	-0.003303	0.109675	0.311545	0.519103	-0.224383	0.394827	0.872597	0.015383	-0.746694	0.218707	0.55629
OMIM:311070	-0.08282	0.362486	0.938383	-0.407565	-0.588941	-0.453862	0.112313	0.840647	-0.192173	-0.030875	-0.838085	0.083036	-1.03552	0.1743	-0.705282	0.125902	-0.403098	-0.290014	0.531637	0.853082	-0.064198	0.330074	-1.13631	-0.02653	0.043674	0.377403	0.307083	1.24243	0.160163	-0.53677	0.237269	-0.971766	-0.225545	-0.116167	0.536206	-0.237576	0.405076	-0.43773	-0.114658	-0.164223	-0.010087	0.650065	-0.370415	0.124743	0.420672	-0.310135	-0.73759	0.366403	0.942401	-0.17075	-0.088441	-0.029242	-0.531161	0.336607	-0.073048	-0.281911	0.320348	-0.11423	0.303931	0.16848	-0.359896	-0.247934	0.059339	0.254876
OMIM:190600	-0.644538	0.637936	0.207333	0.640982	-0.454685	-0.716792	-0.213898	0.582861	-0.12893	0.329856	-0.764521	-0.11745	0.264899	0.830545	-0.32465	-0.739316	-0.575583	0.11588	-0.710216	0.877343	-0.594953	-0.947315	-0.436047	0.07736	0.268846	-0.495767	-0.564872	0.282321	-0.716785	-0.297664	1.36096	-0.582805	0.472235	-0.262679	0.080224	-0.157474	0.30914	0.45581	0.057784	0.315799	-0.194709	0.556956	0.088718	0.272484	-0.871798	0.370452	-0.27464	0.144975	-0.203986	-0.168932	-0.167984	-0.191526	-0.030826	0.951869	-1.1598	-0.150951	0.229719	-0.429388	0.865264	0.44572	-0.051708	-0.138267	-0.085077	-0.270285
OMIM:102900	-0.695664	0.530708	0.184941	0.711977	-0.092231	-0.69788	-0.937415	0.102616	0.107496	-0.629325	0.081454	0.069945	0.14433	1.01912	0.442089	-0.572785	-0.102127	-0.169338	-0.343976	0.897592	0.497044	0.132793	0.836699	0.748774	-0.331337	-0.891258	-0.471062	0.946548	-0.054767	-0.921741	0.651798	-0.644427	0.27249	-0.024781	-0.180452	-0.733341	-0.21278	-0.001351	0.605723	-0.370036	0.788899	0.057811	0.392202	0.316639	-0.804444	0.18327	0.212222	-0.093028	-0.052435	-0.607488	0.007673	-0.177542	0.393702	0.61803	-0.485273	0.077125	0.242802	0.654356	0.42672	0.071127	0.235246	-0.944266	-0.776246	0.529133
OMIM:105300	0.402467	0.340861	0.45456	0.069677	-0.508328	-1.12696	-0.203888	1.10713	-0.355391	-0.13312	-0.607796	0.153506	-0.573187	-0.493507	-0.522972	-0.549734	-0.580801	0.127668	-0.451737	1.10748	-0.446614	0.91979	-0.388625	-0.605881	0.599204	0.289764	0.185209	1.16003	0.277811	-0.638824	-0.485209	-0.661773	-0.458769	0.536513	-0.548902	-0.275074	0.501194	0.104784	-0.241297	-0.550724	0.327768	0.673522	-0.266039	0.782723	-0.000385	-0.109297	-0.076502	-0.039542	-0.178642	-0.064732	-0.044514	-0.771194	-0.261416	0.561553	0.95432	0.12436	0.767109	0.043285	0.561275	0.387403	0.100066	-0.033566	0.505669	0.616611
OMIM:102300	1.05247	0.238705	0.449054	-0.072052	-0.288819	-0.25716	0.036812	0.420884	0.072291	-0.268798	-1.40741	0.560857	-1.07324	0.126011	-0.048493	-0.147741	-0.320405	0.836581	0.214015	0.311657	0.122474	-0.164338	-0.251625	0.553023	-0.238599	0.122124	-0.531271	0.622407	-0.665402	-0.214084	-0.497241	-0.90624	-0.108662	0.295683	0.575858	-0.357809	-0.042993	0.458528	0.176328	-0.344224	0.261163	0.66229	-0.586129	0.527706	-0.712713	0.128647	-0.346662	0.056498	-0.365715	0.110241	0.378589	-1.33816	-0.320588	0.061919	0.260928	1.19672	-0.335957	0.624147	0.707031	-0.414462	-0.228958	0.297243	-0.53185	0.20273
OMIM:102650	0.293367	-0.160993	0.427827	0.245712	-0.311143	-0.541171	-0.671845	0.514021	-0.506368	-0.411668	-0.153899	-0.044061	-0.442338	0.43034	-0.166852	-0.526067	0.018111	0.144993	-0.546936	0.152987	0.317991	0.110121	-0.200925	0.549053	0.22621	-0.129805	0.035166	0.980212	-0.121334	-0.057898	1.79239	-0.356284	0.30567	0.460086	0.66328	0.038615	0.881883	0.213681	-0.727058	0.658938	0.246252	0.282506	-0.039239	0.800793	-1.36994	0.311432	-0.737165	-0.240113	0.222256	0.260822	-0.548046	0.057518	-0.853058	0.268955	0.100052	-0.239409	1.44009	-0.414005	0.820282	-0.199476	0.34679	-0.086975	0.304747	-0.658444
OMIM:219500	0.347581	0.871266	-0.054851	-0.426272	0.173637	-1.16788	0.363308	0.421243	0.117959	0.10431	-0.192749	1.44089	0.061536	-0.326515	-0.296037	0.080313	-0.848199	-0.021377	-0.59645	1.04758	0.716593	-0.180562	-0.87137	0.284909	0.168785	-0.253361	-0.986143	1.00643	-1.31778	-0.939152	0.469141	0.020347	-0.042426	0.399295	0.138647	0.09291	0.168504	0.131935	0.065632	0.4073	0.426741	0.666107	0.34046	0.814639	-0.40031	-0.276576	-0.421434	-0.823524	0.298145	-0.419908	-0.864072	-0.344637	-0.433114	-0.527079	0.630938	-0.440877	0.597036	0.587686	0.421335	-0.414319	0.183628	-0.561463	0.484821	0.021151
OMIM:602096	0.938695	-0.253375	0.76393	-0.770512	-0.440178	-0.396064	-0.677008	0.370992	0.502344	-0.208579	-0.416253	-0.423336	-0.504943	-0.197947	0.144512	-0.464556	-0.686815	-0.084731	-0.532102	-0.245229	-0.217502	0.372385	-0.520855	0.377151	0.371901	-0.448846	0.111463	1.02656	0.19806	-0.012966	0.190417	-0.620787	-0.935428	0.09083	0.061635	-0.647938	0.859839	0.62254	-0.890098	0.408837	0.688036	0.669839	-0.054017	0.943349	-0.037666	0.421204	-0.513512	0.645543	0.77086	0.320804	0.140603	-0.639414	0.009277	-0.359291	0.444519	0.280154	0.906281	0.990052	0.193506	-0.073784	-0.42495	-0.558389	0.166022	0.162532
OMIM:602097	0.697273	-0.162631	0.137986	-0.371024	-0.621807	-1.09747	-0.188837	0.147103	0.029437	0.129238	-0.705449	-0.372584	-1.13162	-0.223781	-0.740605	0.258731	-0.556221	-0.514548	0.298053	2.05625	0.42887	0.525378	-0.450747	0.116148	-0.3081	-0.010472	0.580161	0.014143	0.006438	-0.458141	1.01434	-0.571334	-0.601041	0.537605	0.216641	0.420549	1.15844	-0.853339	-0.143998	0.24222	0.384654	0.474627	-0.015829	0.751107	0.326342	0.349839	-0.378849	-0.438721	1.00213	0.910883	-0.550398	-0.612923	-0.032929	-0.112741	-0.323527	0.012362	0.673638	0.55038	0.365411	-0.023507	-0.438127	-0.427095	0.435916	0.572862
OMIM:602092	0.888753	-0.252976	0.900741	-1.08648	0.03503	-0.933539	0.056683	0.467321	0.542432	-0.102869	0.310171	-0.571927	-0.586447	-0.223212	-0.455271	-0.158595	-0.65429	-0.093619	0.159231	1.03923	0.271691	0.514442	-0.771552	0.054995	0.170616	0.065952	-0.292948	-0.103295	-0.477186	-0.383008	0.323418	-0.701296	0.065719	0.21574	0.552984	0.016544	0.40946	-0.279444	0.639316	-0.218859	1.22953	0.270837	0.085974	0.472635	0.471078	-0.352706	-0.896702	-0.106955	0.465951	0.407735	-0.39614	-1.19679	0.443715	-0.257164	-0.121089	0.341081	0.806948	0.16351	0.36873	-0.155551	-0.383889	-0.50414	0.418902	0.375338
OMIM:602093	0.452085	-0.032796	0.3358	-0.111928	-1.06292	-0.854088	0.814252	-0.392405	0.271742	-0.224227	-0.421575	0.600737	-0.559944	-0.099114	-0.907418	-0.253466	0.184521	0.209495	-0.105369	1.14762	0.60363	0.990238	-0.012618	0.670298	-0.118044	-0.092035	-0.362305	-0.205158	-0.095803	-0.271762	0.056881	0.03926	-0.738726	0.100023	0.395686	-0.158455	1.11699	-0.324995	0.492707	0.05243	-0.214603	0.87262	0.060492	-0.24339	0.608525	-0.730999	-0.152949	0.109498	0.336137	-0.04177	-0.510146	-0.636526	-0.17082	-0.211887	-0.518349	0.700836	0.106313	0.206989	0.685203	-0.384484	0.090659	-0.938652	0.382733	0.571463
OMIM:602099	0.656692	0.360988	1.13077	-0.104743	-0.857101	-0.411927	-0.520407	0.974926	-0.244706	-0.672124	-0.787015	-0.111763	-0.949538	-0.167243	0.229438	-0.408446	-0.5183	-0.028371	0.067533	0.608618	-0.639055	0.187001	-0.296031	0.01025	0.065161	-0.044942	-0.091119	1.21933	0.253353	-0.258341	-0.219865	-0.948657	-0.535836	0.365067	-0.080234	-0.628639	0.459285	0.366699	-0.67935	-0.196879	0.313333	0.31418	0.11186	0.595362	-0.293598	0.391045	-0.858583	0.561125	0.307616	0.192012	0.04772	-0.512214	-0.601532	-0.176297	0.341128	0.269511	1.08034	0.117831	0.243869	0.026811	-0.699243	0.392042	-0.403571	-0.178983
OMIM:125852	-0.313197	0.397539	0.450261	0.155725	0.099096	-0.167652	0.512781	-0.092	0.287003	0.63113	-0.477289	0.884157	-0.196212	0.341209	-0.104457	0.128674	-0.605858	-0.125454	-0.348315	0.73413	0.546123	0.324107	-0.047772	-0.363648	-0.084168	-0.449388	-0.868108	1.05711	-1.18671	-0.639235	0.542752	-0.292422	-0.858648	0.101069	1.07752	0.553568	0.635466	-0.023167	0.360245	0.109508	1.038	0.575998	1.3042	-0.233656	0.044829	-0.120704	0.16183	-0.284414	-0.202755	0.188108	0.225958	-0.522168	0.157824	-0.858077	0.274535	0.152137	-0.578623	-0.441143	0.465531	-0.07324	-0.092623	-0.54853	0.271458	-0.176311
OMIM:125853	0.192202	0.344437	-0.071009	0.569083	-0.448172	0.078912	0.412101	-0.424166	-0.002843	0.546972	-0.491563	0.379271	-0.369228	0.645021	-0.12472	-0.604492	-1.02531	-0.534663	-0.238601	0.368743	0.380651	0.026931	-0.152242	0.612083	-0.436516	-0.117503	-0.985089	1.33455	-1.12178	-0.513959	0.599682	-1.2352	-1.11169	0.265578	0.525252	0.594	0.614925	0.587707	-0.017746	0.411297	0.978214	1.23557	0.656672	0.482243	-0.051776	0.094898	0.395401	0.392987	0.229544	0.109386	0.672109	-0.313759	0.001416	-0.316094	0.255897	0.094293	0.212861	0.266674	0.325144	0.474321	-0.43165	-0.691266	0.717774	-0.001769
OMIM:125850	-0.190911	0.07042	0.199884	0.544541	-0.042988	-0.10731	0.766185	-0.216835	0.061264	0.367237	-0.839988	0.463257	-0.07239	0.295208	-0.222182	-0.201861	-0.529836	-0.435755	-0.433786	0.626632	0.726409	0.090962	-0.174419	0.050022	-0.348446	-0.452781	-0.653346	1.2717	-1.3755	-0.452841	0.615934	-0.78669	-1.09328	0.393489	0.683285	0.448283	0.717828	0.101515	0.183966	-0.079456	0.815505	0.908031	1.0524	0.239774	-0.391496	0.36444	0.207012	-0.036116	-0.160863	-0.002013	0.453768	-0.273306	0.212238	-0.396658	-0.087644	0.129342	-0.147614	0.023	0.460072	0.459727	-0.417283	-0.797831	0.507338	-0.062717
OMIM:125851	-0.188944	0.12743	0.17951	0.548428	0.008547	-0.118506	0.707906	-0.252842	0.049349	0.410167	-0.920061	0.391964	-0.101686	0.447997	-0.204671	-0.20738	-0.574036	-0.501347	-0.482574	0.704883	0.753823	0.183882	-0.05984	0.125951	-0.248032	-0.506103	-0.533987	1.27854	-1.49786	-0.536847	0.638766	-0.707203	-1.05715	0.683675	0.579978	0.513708	0.813936	0.121035	0.211887	-0.150231	0.774064	0.880818	0.925871	0.335918	-0.428668	0.259937	0.152489	-0.019882	-0.112341	-0.043467	0.29828	-0.291322	-0.024524	-0.472689	-0.065564	0.207865	-0.148637	0.056561	0.478208	0.428437	-0.299285	-0.911935	0.432222	-0.104405
OMIM:244100	0.431333	0.285358	0.288995	0.006156	-0.198482	-0.101337	-0.688503	0.191436	0.30787	-0.02626	-0.724666	0.229533	-0.957416	0.799226	0.006907	-0.213572	-1.09158	0.249135	-0.338435	-0.057133	0.505864	0.04085	0.415971	0.15811	0.250996	0.220706	-0.366938	0.352568	-0.359246	-0.018954	0.351228	-0.323055	-0.426204	0.116971	0.660026	0.068396	0.446035	-0.06996	-0.36561	-0.017456	0.370646	0.565431	0.534078	-0.0695	-0.491514	0.858669	-0.28238	0.208886	0.224285	-0.377792	-0.464564	-0.296844	-0.375901	0.495114	-0.055828	0.401028	0.225941	-0.057887	0.418658	-0.032315	-0.392593	-0.451695	0.348926	-0.020207
OMIM:147400	0.915646	-0.6168	0.533758	0.288061	0.012777	-0.491853	-0.883472	-0.894265	-0.138546	0.309327	-0.537966	0.96766	-0.273497	-0.542511	0.273626	0.660694	0.223419	0.847098	0.170681	-0.031896	0.60909	0.95131	-0.327394	-0.15027	0.444092	0.243248	-0.937077	-0.015243	0.607289	0.156337	1.02785	-0.763927	-0.41698	-0.528257	1.2175	-0.121238	0.006889	-1.25089	0.610648	0.767854	0.746412	0.501245	-0.445802	0.803098	-0.132386	0.203643	-0.810226	-0.659922	-0.857618	0.045111	-0.203058	-1.28063	-0.484666	0.251032	-0.025376	1.17673	0.40037	-0.062908	-0.195378	0.209905	0.162828	-0.618358	0.455286	-0.286054
OMIM:213100	0.871125	0.783064	0.507112	-0.600144	0.090192	0.013429	-0.01293	0.431	0.407336	0.215689	-0.317377	0.551602	-0.528759	0.536896	-0.148661	-1.0513	-0.485686	0.575764	-0.731793	0.514725	-0.158475	-0.065665	-0.189035	-0.121321	-0.646786	-0.185791	-0.668972	0.602114	-0.308455	0.125054	-0.672409	-0.942835	-1.11893	0.137215	0.513216	-0.192401	-0.192666	-0.160272	-0.287486	-0.311137	0.444471	0.236721	0.188357	0.29231	0.046531	0.227144	-0.130137	-0.277576	0.076449	0.566376	0.810351	-0.187564	0.120567	0.152201	-0.278866	1.50081	0.180265	0.185368	0.382643	-0.056538	-0.366952	-0.098775	0.063002	0.132683
OMIM:603147	0.730496	0.153366	1.23726	0.011184	-0.179605	-0.746251	0.825474	0.289684	0.636775	0.530924	0.158863	0.704992	-0.561552	0.691791	-0.318737	-0.467082	-0.977073	0.135528	0.46987	0.755063	0.036612	0.635492	-0.614978	0.235324	-0.064803	-0.553379	0.186212	0.990446	-1.08107	-0.518389	-0.075324	0.393016	-1.1294	-0.638012	-0.412853	0.18408	-0.357999	-0.271053	-0.356549	-0.110686	-0.288267	0.32161	0.184584	-0.256211	-0.460743	-0.346782	-0.332833	-0.017435	0.130613	-0.053235	0.268568	-0.441579	1.18106	-0.410418	0.537315	0.659909	0.252409	-0.283614	0.655069	0.095853	0.279887	-0.428749	0.25298	0.336567
OMIM:261515	-0.065882	0.295823	0.70765	0.332626	0.068613	-0.708507	0.071017	0.485204	0.524668	0.536006	-0.151967	0.191756	0.1789	-0.314384	-0.238548	-0.279449	-0.556239	-0.055432	0.227413	0.135059	0.107304	-0.041455	-0.799318	-0.037759	-0.000348	-0.545766	0.407178	0.686976	-0.383818	-0.530222	-0.143915	0.148609	-0.666832	-0.336578	0.074369	0.079388	-0.118406	0.524815	-0.338404	0.035237	0.622777	-0.212054	0.163841	0.023465	-0.431111	0.013879	0.129168	0.247947	-0.051593	-0.383882	0.458761	0.282563	-0.132336	0.385055	0.257434	0.183801	0.025077	-0.229993	0.067427	0.168554	0.315107	-0.368894	0.693827	0.580079
OMIM:614972	0.086161	-0.211197	0.378949	-0.262722	0.529563	-1.19237	-0.257741	-0.445283	0.411196	0.361358	0.792408	-0.8042	-0.803139	0.220334	0.55815	-0.216262	-0.151687	-0.400355	-0.543467	0.352838	0.417486	0.594834	-0.465062	1.01636	0.145901	-0.334438	0.256272	1.44967	-0.739217	-0.086878	0.150939	-0.039891	-0.288655	0.247139	0.608404	0.80468	0.991057	0.183017	-0.964036	0.552862	0.058532	-0.102041	0.346796	1.09244	-0.644697	-0.008085	-0.488964	0.193895	-0.476708	-0.685316	-0.471849	-0.528787	-0.067826	-0.579792	0.332349	0.748184	0.434671	-0.186479	-0.087682	0.24853	-0.208149	-0.276056	0.820647	0.390288
OMIM:109350	-0.009867	-0.174021	1.18991	0.733586	-0.648701	-1.12722	-0.156923	0.227139	-0.314833	-0.536151	-0.293312	0.047909	0.092209	0.451874	0.008229	-0.115558	-0.229802	0.025412	-0.15531	0.624898	-0.883955	0.298516	0.2884	0.356245	0.450015	0.162126	-0.310286	0.042007	-0.097494	0.355293	-0.151191	-1.22593	-0.001175	-0.297994	1.19214	-0.79905	0.69828	0.345875	-0.524376	0.338331	0.180971	0.355972	-0.309279	0.284751	0.019146	0.147951	-0.974648	-1.51518	-0.712663	0.18451	-0.499631	-1.04083	0.023987	0.090264	0.344548	0.463278	0.539074	-0.051637	0.741536	0.430386	0.116705	0.567143	-0.182589	0.700047
OMIM:210100	0.117829	0.899287	0.014458	-0.36092	-0.016532	-1.17567	0.482217	0.440912	0.191724	-0.27496	-0.223388	1.18433	0.135573	0.126837	-0.17315	-0.053442	-0.480205	0.200796	-0.542055	1.13221	0.594368	0.008024	-0.961084	0.122154	0.398556	-0.365652	-0.940994	1.1066	-1.12251	-1.14277	0.521854	-0.193987	-0.087997	0.521847	0.633115	0.282337	0.189377	0.032096	0.459207	0.638877	0.117849	0.770341	-0.01479	0.968972	-0.585719	-0.086146	-0.26479	-0.427402	0.247218	-0.609971	-0.753391	-0.88909	-0.588442	-0.634846	0.163033	-0.208989	0.54853	0.52688	0.267972	-0.254479	0.136138	-0.391187	0.569787	0.313927
OMIM:602540	-0.265613	-0.551488	1.07045	-0.690944	0.208428	-0.655612	-0.768608	0.648372	-0.351056	-0.368812	0.329907	-0.746764	-0.839843	0.662299	-0.598777	-0.175512	-0.070172	-0.217633	0.558588	0.8342	-0.226178	0.125136	-0.677276	1.23232	-0.044393	0.297317	-0.058118	0.141923	-0.1572	0.43717	0.676763	-0.147455	-0.024185	0.298113	0.836563	0.490301	0.999742	0.572081	0.377318	-0.117793	0.233359	-0.347882	-0.677585	0.318433	-0.107312	0.076973	-0.41895	-0.505768	0.639998	0.187669	0.16344	-0.583818	0.020319	0.098176	0.304913	0.055941	0.793593	0.126527	0.360064	0.060555	-0.187831	-0.325078	0.74295	-0.225412
OMIM:230650	0.25975	0.345642	0.217792	-0.435057	-0.829028	-0.062101	-0.319476	0.616948	0.533822	0.320009	-0.227614	0.767102	-0.340596	0.35106	-0.001633	0.099882	0.567739	-0.210375	-0.396413	0.211356	-0.006331	0.552851	-0.279409	0.131071	0.724902	-0.126282	-0.134938	1.21811	-0.159408	0.137282	0.095822	-0.107494	-0.260151	-0.348888	0.427897	-0.317059	-0.052626	0.262578	-0.398919	-0.356002	-0.234945	0.553835	0.103863	0.51483	0.400149	0.052351	-0.619261	-0.383312	1.12124	-0.05932	0.037897	0.059449	-0.726521	-0.036735	0.455853	0.253919	0.743333	-1.04008	0.184374	0.100211	-0.079638	-0.934441	0.247152	-0.34334
OMIM:137940	0.003691	-0.264817	0.775192	0.003794	-0.100926	-0.967458	-0.41086	0.014706	-0.139704	-0.332897	-0.849149	-0.160212	-1.22108	0.005512	0.290049	0.534688	-0.003251	0.058888	-0.006955	0.3133	-0.185743	0.635553	-0.445719	0.69666	0.07166	0.446727	0.100579	0.469446	0.226935	0.375165	0.134041	0.108847	-0.068617	0.704329	0.50548	0.278509	0.171185	0.20701	0.019148	-0.272678	-0.050296	0.178303	0.13629	-0.071313	-0.374423	0.253418	-0.319198	-0.014348	-0.179494	-0.243255	-0.746481	-0.72523	-0.30751	-0.322702	0.660772	0.947504	0.198799	-0.149928	-0.239643	0.586362	0.159321	-0.434605	0.707664	-0.521945
OMIM:609560	0.588391	0.957425	0.75512	0.703666	-0.566563	-0.77164	0.075431	0.492095	0.019583	0.103547	-0.171364	0.775106	-0.420172	-0.061227	0.128211	-0.854346	-0.87609	-0.224941	0.871369	0.419639	-0.335331	-0.17723	-1.30603	-0.079422	-0.226071	-0.230444	0.2524	1.01441	-0.938704	0.161023	-0.313671	0.112204	-0.581277	0.764476	-0.127915	-0.08	-0.253597	0.051868	0.019467	-0.350654	-0.131143	0.447969	-0.000822	0.712129	0.477418	-0.7752	-0.547249	0.049785	-0.025953	-0.371179	-0.207509	-0.54582	-0.430504	-0.202928	-0.100291	0.395615	0.467397	0.554609	0.307854	0.080576	-0.098683	-0.141975	-0.195547	0.511343
OMIM:156400	0.3439	0.229814	-0.210097	0.372706	0.431627	-0.762948	0.5969	-0.28413	0.620358	0.694985	-0.510996	0.252412	0.547386	0.204456	-0.010038	-0.632938	-0.318384	0.218341	0.047011	0.174566	-0.034087	0.439445	-0.592959	-0.04573	-0.074004	-0.531027	0.054379	0.46401	-0.585897	-0.242106	0.101061	-0.179878	-0.24231	-0.069762	0.266819	0.587379	0.415314	0.578529	0.3116	-0.655736	0.445285	0.736442	-0.418312	0.344714	-0.443832	0.420089	-0.291472	-0.133061	-0.172123	0.264123	0.071397	0.043952	-0.177172	0.391634	0.176093	-0.498429	0.306359	-0.571688	0.011766	-0.339963	0.034246	-0.384037	0.369297	-0.422873
OMIM:611225	0.81765	-0.187953	0.751626	-0.089252	-0.598545	-0.28153	-0.176154	0.582471	0.32452	0.252049	-0.489043	0.430121	-0.358051	-0.493687	0.203632	-0.153204	-0.405924	0.164328	0.442877	0.266815	0.226254	0.768219	-0.806145	-0.091804	0.079703	0.333813	0.190038	1.03263	0.726303	-0.103118	-0.174039	-0.299066	-0.504622	0.005622	0.238272	-0.602401	0.315951	-0.006641	-0.5282	0.067898	0.158141	0.155496	-0.009036	0.608189	-0.165895	-0.057674	-0.405113	0.131027	0.473296	-0.053026	0.019219	-0.010712	-0.572676	0.706558	0.587953	0.171737	0.88525	-0.393927	0.369258	0.102057	0.172369	-0.662619	0.325113	0.212902
OMIM:256730	1.03477	0.34549	0.709991	0.399547	-0.284681	-0.14267	0.933461	0.917297	0.467168	-0.074841	-0.733759	0.174709	-0.419003	0.333197	-0.617717	-0.386725	-0.453171	0.694911	0.061741	0.503771	-0.193228	-0.365913	-0.009311	0.346372	0.043513	0.084341	-0.093508	-0.003064	-0.225086	0.347814	-0.055144	0.103206	-0.843291	-0.242825	0.186804	-0.341699	-0.386494	0.142241	-0.048245	-0.456967	1.07377	0.735236	0.413451	0.409341	-0.172318	-0.426443	-0.164024	0.278763	-0.319575	-0.074249	0.928717	0.007646	-0.137947	1.04095	0.637021	0.535537	-0.333698	0.149315	0.190997	0.083443	0.447389	-0.594926	0.193039	0.118322
OMIM:256731	0.581739	0.467483	0.203261	-0.181072	0.225079	-0.114948	0.494718	0.494426	-0.026422	-0.287235	-0.110682	0.634333	-0.46333	0.21225	0.049485	-0.812224	-0.784763	0.723022	0.338713	0.455525	0.224552	-0.487288	0.276315	0.513796	-0.542905	0.368877	-0.211046	-0.100387	-0.685883	0.257268	0.123129	-0.008525	-1.0304	0.118239	-0.049414	-0.222255	-0.423575	-0.232797	0.10741	-0.495356	0.665858	0.913188	0.709278	0.666868	0.268127	-0.293862	0.03033	-0.043284	0.284093	0.735408	0.566511	-0.29177	0.642191	0.443863	-0.049827	1.45191	0.163713	0.081075	0.289614	-0.259239	-0.120753	-0.328982	0.43366	0.177927
OMIM:182610	0.529759	1.11302	0.256356	0.260699	-0.085722	-1.17014	0.274863	0.478178	-0.051132	-0.139251	-0.633381	0.259359	-0.448777	0.315273	0.075423	-0.375044	-0.237044	0.443288	0.132475	0.468638	0.019756	-0.04367	-0.929061	0.124186	-0.330508	0.318151	-0.775784	1.41887	-0.397263	0.36904	-0.078134	-0.249405	-0.587748	0.391285	-0.016576	-0.636182	0.274422	0.330805	-0.553946	-0.616361	-0.638382	-0.324073	-0.24691	0.583748	-0.352591	0.524447	0.369744	-0.015919	0.123024	-0.057376	0.52456	-0.794532	-0.59181	0.198243	0.137719	0.529186	0.626783	0.003493	0.270242	-0.548511	-0.4006	-0.296647	-0.025253	0.794784
OMIM:611228	0.544128	0.170707	1.19482	-0.786345	-0.11077	-0.466374	0.00808	0.811477	-0.22592	-0.387814	-0.679952	0.34084	-1.00889	0.132932	-0.339915	-0.055075	-0.754596	0.123771	-0.141349	1.14345	-0.392206	0.374114	-0.329573	-0.070327	0.344081	-0.360464	-0.258174	1.32432	-0.029751	0.218047	-0.099388	-0.834224	-0.039141	-0.488633	0.25798	-0.993636	-0.169728	-0.206793	-0.238628	-0.731712	0.92542	0.238406	-0.614698	-0.02758	-0.199522	-0.039555	-1.18855	0.457906	0.563725	0.343794	0.549124	-0.634664	-0.866305	-0.058733	-0.438099	0.190856	0.587416	-0.515771	-0.069641	0.304331	0.169319	-0.41556	-0.155241	0.01188
OMIM:310300	0.638685	-0.147434	0.489342	0.259198	-0.75184	-0.238777	0.215898	0.733405	0.075993	-0.031191	0.294326	0.843322	-0.611641	0.554325	0.313695	-0.490902	-0.792009	0.095819	-0.523312	0.538412	-0.26412	0.062854	-0.257541	0.49074	0.105672	-0.193056	-0.183931	1.15978	-0.229823	0.40117	-0.174092	-1.36043	-0.228408	0.089989	0.212827	-0.28691	0.284261	-0.186784	-0.38949	-0.512494	-0.155662	0.594219	-0.651327	0.068516	-0.237489	0.20953	-1.38158	0.758947	0.182324	-0.480792	-0.654237	-0.34086	-0.371578	0.101515	-0.198147	-0.409785	0.787376	-0.390368	-0.037555	0.587562	-0.144692	-0.750617	0.563184	-0.447183
OMIM:306930	0.058234	-0.086316	0.008759	0.110942	-0.07797	-0.17708	-0.740603	0.099075	0.703111	-0.433972	-0.432781	0.422418	-0.542136	1.19035	0.185279	-0.622758	-1.17438	-0.09741	-0.237307	-0.293595	0.287381	-0.00781	0.005175	0.336065	0.357453	0.114671	-0.491762	0.305158	-0.698672	-0.326569	0.592201	-0.268189	-0.841554	0.195533	1.03972	0.048689	-0.312247	0.25502	-0.30006	0.13745	0.025567	0.718511	0.121335	0.163285	-0.661142	0.53486	-0.336999	-0.045366	0.131244	-0.249797	-0.416254	-0.533902	-0.121795	0.217402	0.237914	0.483806	-0.19156	-0.012149	0.294381	-0.098965	-0.11103	-1.059	-0.087098	0.232302
OMIM:605027	-0.321566	0.209664	0.092535	0.058617	0.253969	-0.807915	-0.468653	-0.394056	0.045575	0.014029	-0.267847	1.0252	0.269533	0.882216	0.286877	-0.855343	-0.013396	-0.576657	-0.021667	-0.082392	-0.670956	-0.416272	0.673041	0.662906	-0.378132	0.552384	-0.891585	0.189549	-0.113329	-0.241001	0.99669	0.049348	-0.566179	0.290562	1.33217	-0.597617	0.370097	0.210087	-0.126379	-0.359866	0.625626	0.824484	-0.35184	0.267746	-0.308858	1.18903	0.276169	-0.857918	0.029983	-0.446039	-0.289802	-1.06782	-0.000557	0.67594	0.27207	1.08055	0.264854	-0.330193	0.048832	-0.059703	-0.106806	-1.21762	-0.207298	0.632464
OMIM:305700	0.585548	0.256451	0.563218	0.285668	0.464111	-0.719345	-0.530948	-0.453608	0.296823	-0.642538	0.595737	-0.467125	-0.59767	0.568151	0.87089	-0.161709	0.564579	-0.131906	-0.191861	0.011998	-0.15544	0.645954	-0.447647	-0.351602	0.588278	-0.220595	-0.027593	1.10178	-0.63197	-0.122765	1.30896	0.431945	-0.836773	-0.07065	0.833214	0.501289	0.258699	0.085115	0.009431	0.427981	0.811799	1.02409	-0.160076	0.321305	-0.627752	0.943965	-0.498721	-0.728811	-0.106762	-1.01365	0.327026	0.474086	-0.054001	-0.724271	0.294305	0.242073	-0.289487	-0.412755	0.795962	0.027978	-0.770098	-0.831824	0.705692	-0.4883
OMIM:163000	-0.374508	0.096997	-0.017433	0.357408	-0.030706	0.257978	-0.538705	0.143132	0.257465	-0.356087	-1.1668	-0.548809	0.313247	0.39652	-0.159667	-0.282177	0.139885	0.118275	-1.33694	-0.454428	0.240656	0.206962	0.329854	0.533255	-0.167313	0.588372	-1.27377	0.836134	0.074748	-0.057394	0.547817	0.409659	-0.412019	0.556614	1.09991	-0.39013	0.654094	0.528581	-0.401173	0.78522	-0.16669	0.405885	0.608074	-0.089997	0.058223	0.533727	-0.129714	-0.094861	-0.073552	-0.889239	-0.510784	-0.603571	-0.370137	0.268073	-0.513094	0.925492	-0.032731	-0.403981	-0.287317	0.300416	-0.157403	-0.464932	0.722634	0.016865
OMIM:184510	-1.12229	0.361371	0.691041	0.631198	-0.069896	-0.679077	-0.282804	-0.27198	0.067777	0.541222	-0.852567	-0.034338	-0.02933	0.765118	0.827135	-1.22117	-0.461809	-0.076036	0.203856	-0.134608	0.440578	-0.178493	-0.604602	0.713663	-0.457297	-0.355797	-0.139025	-0.491042	-0.340067	0.369426	1.81702	-0.503025	-0.570701	-0.212675	0.774404	-0.61732	0.373007	0.873903	-0.176416	0.431776	0.247349	-0.042479	-0.629353	0.044644	-0.597922	0.95467	0.803535	-0.508634	-0.130407	0.545579	-0.284283	-0.702106	-0.385048	0.808617	-0.526489	0.363613	-0.187129	0.427668	-0.838076	0.247714	0.003699	0.359891	0.324911	-0.322441
OMIM:216411	-1.56353	0.489578	1.56368	-0.339911	-0.36391	0.5139	0.15533	0.648607	0.693802	-0.134022	-0.480923	0.023732	0.46843	0.37194	-0.610263	-0.139152	-0.126573	0.228148	0.065163	0.597048	0.487063	5.5e-05	0.029009	-0.064076	-0.409854	-0.231579	-0.392408	0.237396	-0.602163	0.230599	0.910044	0.05242	-0.003392	-0.494163	-0.10172	0.192285	-0.053456	0.519392	0.119215	0.284997	0.374387	0.058138	0.449329	-0.701724	-0.471188	-0.091398	-1.04536	0.107038	-0.504543	0.10992	0.841699	-0.079888	-1.12099	-0.240098	-0.485747	1.22009	0.589607	0.067776	-0.500168	-0.68509	0.660265	-0.324358	0.153178	0.466886
OMIM:249500	0.876669	-0.451747	0.614748	-0.446322	-0.497662	-0.826234	-0.114223	0.862672	0.63564	-0.080362	-0.622065	-0.687364	-0.503972	-0.674368	-0.161362	-0.646645	-0.554286	0.503473	-0.012815	1.32828	-0.281643	0.888299	-0.638115	0.055979	0.596318	0.247789	0.06927	0.634333	0.63598	-0.638272	0.309116	-0.115897	-1.00665	0.321627	-0.16642	0.17556	1.07304	-0.058917	-0.063632	-0.344957	0.209076	0.517091	0.158082	0.740707	0.185618	0.197358	-0.285258	0.080766	1.01808	0.735522	0.213521	-0.414243	-0.336341	-0.085716	0.292872	-0.073587	0.538915	-0.102299	-0.228547	-0.331531	-0.215959	-0.704571	0.703522	-0.005749
OMIM:246700	0.508045	0.374132	0.369565	-0.368061	0.010653	-0.864166	-0.134692	0.52321	-0.395905	0.664795	-0.019411	1.1281	-0.964783	0.096586	0.182181	0.096388	-0.467676	-0.420424	0.152077	-0.137776	0.09656	0.545208	0.370211	0.104881	0.219058	0.622806	-0.895901	0.524424	-0.644506	-0.117485	-0.706227	-0.388105	-1.20511	0.466852	0.673081	0.636483	-0.236272	0.024912	-0.137174	-0.074669	0.478779	0.647919	0.313092	0.790463	-0.000542	0.263304	-0.296495	-0.76811	-0.123356	-0.504835	0.240571	-0.771585	0.437417	0.601707	0.338398	-0.217901	-0.146198	0.095174	-0.724538	0.550918	0.476888	-1.08823	0.07352	0.564474
OMIM:615411	0.037165	-0.625602	0.637622	-0.164723	-0.609154	-0.955698	0.093876	-0.027221	0.33479	0.133827	-0.609709	0.20414	-0.265532	-0.797849	0.011029	0.323048	-0.506016	0.074982	0.175183	-0.058335	-0.260811	0.02517	-0.878136	0.096485	0.446329	0.220516	0.155538	1.43097	0.234625	-0.064677	0.651913	-0.269686	-0.808786	0.329788	-0.042235	-0.137383	0.238798	-0.624203	0.156333	-0.232745	0.143415	0.626562	0.147348	0.914992	0.143924	0.273067	-0.125305	0.46771	0.578587	0.676452	0.341191	0.185609	0.479115	0.194256	0.078088	0.292041	0.156391	-0.040961	0.774718	0.239388	-0.000409	-0.425342	0.374916	0.320765
OMIM:615412	0.643411	-0.443736	0.708522	0.0593	-0.823004	-0.738538	0.079498	-0.091476	0.423544	0.446484	-0.769556	0.249316	-0.511146	-0.507045	0.001967	-0.021365	-0.178971	-0.092737	0.094602	0.074768	0.438698	0.813076	-1.02519	0.441421	0.238827	0.439774	-0.016194	1.1993	0.950466	0.081797	0.524608	-0.041259	-0.68045	-0.26575	0.333365	-0.357552	0.693851	-0.560374	-0.351759	-0.476893	0.364096	0.756585	-0.206599	0.854446	0.295605	0.215784	-0.123869	0.271366	0.946533	0.460503	0.441276	-0.488303	0.105713	0.54129	0.603669	-0.115364	0.078293	0.495437	0.633152	0.060763	-0.413417	-0.677786	0.319765	-0.086962
OMIM:221780	-0.796389	0.321312	1.05472	0.801214	-0.404897	-0.070702	0.348256	0.103322	-0.108575	-0.063047	-1.49202	0.119741	-0.715916	1.32182	-0.153367	-0.897085	-0.630783	-0.307969	-0.390491	0.661327	-0.802869	-0.114091	-0.079527	-0.024908	-0.985119	-0.022002	-1.29828	1.12968	-0.537484	0.587204	0.386801	0.111483	-0.412574	0.096976	0.959216	0.531983	0.592583	0.752762	-0.517537	0.259655	-0.013831	-0.270681	0.129505	0.197686	-0.963346	0.571143	-0.006597	-0.092714	-0.339626	-0.678977	-0.565788	-0.04589	-0.379803	0.079944	-0.99662	0.014182	-0.177693	-0.00131	0.160242	0.223581	-0.541917	0.645291	0.607904	0.013638
OMIM:615414	1.15343	0.121332	0.374752	0.02944	-0.295291	-0.843011	-0.274232	0.006842	1.21105	0.373755	-0.401679	-0.238052	-0.680324	0.231232	1.10325	-0.159601	0.337406	0.033079	-0.379112	-0.394303	-0.428055	0.346186	-0.234886	-0.632878	0.472525	-0.664212	0.093841	0.942621	-0.601468	-0.248119	0.770362	0.076957	-0.957699	-0.048271	-0.154868	0.104697	0.252185	-0.53544	-0.091262	-0.03098	1.05102	0.213463	0.342906	1.21423	-0.268124	0.398188	-1.03378	-0.330417	0.552251	0.241058	0.43511	-0.133477	0.162317	0.554592	-0.057009	-0.083859	-0.339218	-0.096746	0.806064	-0.117172	-0.288777	-0.935168	0.384532	-0.036547
OMIM:615415	0.231262	-0.241284	0.21124	-0.204228	0.150094	-0.788635	-0.785383	-0.593683	-0.10164	0.05816	-0.332656	-0.078471	0.045826	-0.067096	0.190464	-0.285927	-0.975619	-0.697336	-0.252673	0.151608	0.145291	-0.063439	-0.470806	0.392013	-0.063549	-0.717509	0.508655	1.17941	-0.459995	-0.473151	-0.440061	-0.336376	0.056139	0.174365	0.254849	-0.199655	-0.163372	0.334951	-0.412069	1.08848	-0.339915	-0.322726	0.037147	0.774058	-0.358426	0.463827	-1.13813	-0.1523	0.787783	-0.205117	-1.19459	-0.219975	-0.426526	0.016501	-0.625308	0.335726	0.983247	-0.622666	0.541817	0.500147	-0.08921	-0.608097	0.627359	-0.245932
OMIM:186570	-0.358455	0.151409	-0.129543	1.07987	0.058458	-0.695755	0.261149	0.531263	-0.148191	0.031804	-0.69966	0.173372	0.109137	0.935709	-0.787506	-0.705699	-0.500415	0.253011	-0.076258	0.489159	-0.86326	-0.77589	-0.261835	-0.073279	-0.042431	-0.442661	-0.222252	0.456277	-0.505308	0.066005	1.27317	0.056293	0.338274	-0.536539	0.474935	0.087543	-0.133026	0.175503	-0.050838	0.423369	0.952141	0.265167	-0.503456	-0.274294	-0.7429	-0.018888	-0.589387	0.055184	-0.514842	0.180252	-0.461737	-0.234425	-0.272792	0.346939	-0.981786	-0.268356	0.359045	-0.675296	0.872578	0.224099	0.279306	-0.043926	0.063059	-0.106568
OMIM:615145	0.046556	0.324998	1.42099	-0.01428	0.016665	-0.371923	0.41376	1.32335	0.018451	-0.276426	0.105132	-0.386395	0.133837	-0.495511	-0.747481	-0.933582	-0.341225	0.416298	0.075896	0.288892	0.260255	0.248173	-0.322082	0.240687	-0.575782	-0.149286	-0.806421	-0.155311	-0.570882	-0.887776	1.06493	0.866762	-0.474787	-0.200176	0.349185	0.628495	0.33379	-0.768994	-0.061873	-0.370632	0.050411	0.623824	0.58339	-0.101261	0.319542	0.211718	-0.289519	-0.712698	0.596143	-1.32268	0.287603	-0.105786	0.503727	0.673988	-0.42397	0.288266	0.161139	0.204754	-0.043902	-0.306964	0.044427	-0.650251	0.13582	-0.244548
OMIM:615418	0.806211	0.572506	0.39688	0.253475	-1.12513	-0.813499	0.400123	0.389071	-0.562265	0.392527	-0.385484	0.249172	-0.035438	-0.35529	-0.100287	-0.660701	-0.465831	-0.471062	0.303488	0.416812	-0.491157	0.348943	0.058	0.200742	0.76096	0.131878	-0.318622	1.09761	0.185764	0.051719	0.429423	-0.201493	-0.668658	0.504896	-0.49704	0.706745	0.535614	0.644223	-0.245346	-0.276951	-0.517148	0.954883	-0.059813	0.660261	0.154376	-0.290982	-0.757224	0.354932	0.398329	-0.154977	-0.322808	-0.58028	-0.293354	-0.123706	0.426422	-0.148611	0.043018	0.168187	0.396153	0.031906	-0.326248	-1.08666	1.14178	-0.601644
OMIM:615419	0.03109	0.910739	0.88841	0.388203	-0.067559	-0.230177	0.269107	0.291954	0.695742	0.055852	-0.527256	-0.107834	-0.421144	-0.71011	-0.575734	-0.393747	-0.288586	0.191594	-0.178112	0.208895	-0.24657	-0.043473	-0.446011	-0.417762	-0.521532	-0.167741	0.373003	0.351148	-0.292452	-0.5281	-0.146186	-0.087415	-0.90647	-0.215926	0.064828	0.205185	0.159515	0.401409	-0.580851	-0.190314	0.876486	0.205253	-0.120638	0.135176	-0.694979	0.59508	-0.161308	0.260858	-0.592472	-0.291427	0.634339	0.068563	0.076485	0.462581	0.656895	0.380212	-0.018547	0.266505	0.164446	-0.064668	-0.0698	0.106401	0.14128	0.421751
OMIM:314550	0.335928	0.208195	0.512829	-0.39634	0.629437	-1.32532	-0.112842	0.135176	-0.219591	-0.648523	-0.850355	0.321438	0.004744	-0.141485	-0.589823	0.09466	-1.10156	-0.223647	-1.64434	0.352431	0.552848	0.216934	-0.821505	-0.181127	0.737046	-0.03558	-0.304907	0.959596	-0.790475	-0.564192	0.601177	-0.716805	-0.542861	0.359959	0.144387	-0.072979	0.225906	0.58311	-0.664109	0.446842	0.524092	0.361882	-0.45432	0.824843	-0.505164	0.889874	-0.966295	-1.10636	0.938892	-0.474499	-1.13244	-0.306741	-0.411959	0.018332	1.16671	-0.190606	0.512423	0.744721	0.66056	-0.577031	-0.330621	-0.075631	0.649882	0.461378
OMIM:211500	0.028823	0.294691	0.855174	0.344805	-0.221933	-1.23125	0.630066	0.164892	-0.212355	-0.07464	-1.42867	-0.501136	-0.402914	0.575348	0.10849	0.084061	-0.174782	0.617517	0.802894	0.5576	-0.005708	-0.30417	-0.662447	-0.663035	-0.657865	0.73491	0.012675	0.51885	-0.432375	0.124155	-0.869779	-0.475133	-1.01605	0.261342	-0.200084	-0.186194	-0.09197	0.569146	-0.273235	-0.173567	-0.308661	-0.242046	0.21973	0.521375	-0.172104	0.728543	-0.082917	-0.520261	-0.424668	-0.024495	-0.162804	-0.915732	-0.295702	0.216602	0.254876	0.787882	0.192469	-0.328592	1.00297	-0.471284	-0.778403	-0.236359	-0.366994	0.291408
OMIM:605019	0.298975	0.439014	0.828909	-0.258686	0.082925	-0.887337	-0.428173	0.168378	0.636788	-0.024649	-0.111447	0.247541	0.009377	0.040895	-0.158678	-0.381355	-0.619287	-0.076945	-0.178675	0.572685	-0.001386	0.083845	-0.322708	0.313274	0.323516	-0.155413	-0.60555	0.517648	-0.633603	0.0187	0.695174	-0.220068	-0.548201	0.503835	-0.13556	0.005769	0.277141	0.145992	-0.670666	0.268599	0.812822	0.193411	-0.408376	0.588118	-0.384916	0.492948	-0.365003	-0.903619	-0.000404	-0.023302	-0.784861	-0.340947	0.387493	0.388266	0.279677	0.021914	0.65111	0.329578	1.0301	-0.227482	0.059328	-0.648946	0.109479	-0.065137
OMIM:182260	0.122045	0.276658	-0.052243	0.762285	0.407728	-0.945829	-0.24718	0.077895	-0.134426	0.54855	-0.946762	-0.511848	0.080459	0.915161	-0.161	-0.262308	0.267595	-0.317088	-0.651583	0.932209	-0.35906	0.691219	-0.10119	1.30186	-0.134125	-0.86655	-1.4982	0.088369	-0.896979	-0.379156	1.08283	-0.830322	0.037794	-0.753553	0.123034	-0.948844	0.217273	0.067586	0.169139	-0.644141	0.805371	-0.60015	-0.183496	0.120806	-0.329106	0.494304	-0.27766	-0.58169	-0.126876	-0.40829	0.212592	0.005618	-0.012577	0.928232	-0.727519	-0.818802	0.364025	-0.494019	-0.368013	0.239933	-0.751948	-0.404839	-0.53417	0.699364
OMIM:609579	1.28602	-0.15148	0.54271	-0.885666	-0.623805	-0.933205	0.122712	0.149156	0.600943	0.160942	0.091718	0.202299	-0.927281	-0.574485	0.410499	0.175076	0.021526	-0.008398	-0.654404	0.67584	-0.065366	0.612644	-1.28332	-0.522373	0.081718	-0.51898	-0.128543	0.138662	0.382905	0.222011	0.859138	0.246462	-0.243796	-0.625861	0.636957	-0.796838	-0.270391	-0.811848	0.152582	-0.438778	1.53222	0.734436	0.496385	0.736559	-0.187915	0.480891	-1.27849	-0.400552	-0.305074	0.286543	0.621466	-0.131619	-0.364328	0.518455	0.00262	0.489537	-0.075471	-0.203439	0.447873	0.067466	-0.336392	-0.789712	0.609471	0.246263
OMIM:605013	0.517956	-0.225353	0.731972	0.014382	-0.603959	-0.2169	0.02447	0.276534	0.436879	0.293509	-0.762682	0.427039	-0.662449	-0.684461	0.003205	0.219926	-0.24249	-0.050555	0.774551	0.30497	-0.36586	0.357444	-0.547685	-0.02981	0.423494	0.011263	0.260295	0.997574	0.27223	0.119469	0.120592	0.089956	-0.381544	-0.198908	0.328689	0.004295	0.319085	-0.372675	-0.160275	-0.484572	0.265284	0.070461	0.364718	0.434707	-0.090939	0.114981	-0.614657	0.525027	0.552898	0.484919	0.075824	-0.50643	0.010015	0.328659	-0.199963	0.259819	0.53818	-0.622178	0.387178	0.253772	-0.015973	-0.125921	0.655867	0.197199
OMIM:177990	-0.722008	0.58889	1.22266	0.01326	-0.196776	-0.320059	-0.551838	0.066571	0.812467	0.121376	0.628115	-0.796753	-0.985333	-0.249118	0.18521	-0.445522	-0.685427	0.04873	-0.559359	-0.075037	0.162861	0.147814	-0.521983	0.136492	-1.12951	-0.108886	0.001874	-0.173349	-0.446551	-0.213616	0.77686	0.661117	-0.514499	0.354296	0.257923	0.571032	-0.097333	0.749345	0.070762	-0.126328	0.74747	0.08773	-0.32885	0.259219	-0.510465	0.493925	0.052137	0.552206	-0.896834	-0.328358	-0.361731	-0.533524	0.414247	0.338641	-0.350759	0.361166	0.760075	0.00692	0.620121	0.135493	0.029953	0.332788	1.02773	-0.210808
OMIM:608995	0.379297	0.330727	1.45643	-0.721659	-0.024456	-0.367739	-0.13136	0.336895	0.159405	-0.256003	-0.204692	0.439074	-0.473635	0.413387	0.177366	-0.341447	-1.125	0.401704	-0.201201	0.21265	-0.01058	0.04394	-0.427691	0.216066	-0.642121	-0.306857	-0.572165	0.152755	-0.730695	-0.021179	0.775901	-0.456203	-1.07024	0.467692	-0.028986	-0.739542	-0.138011	-0.515813	-0.2881	0.26379	0.116936	0.877776	0.164739	0.457406	-0.415455	0.141707	-0.477298	-0.195612	0.288582	-0.492309	0.581843	0.196879	-0.005249	0.419563	0.084978	0.34417	0.723799	-0.228807	-0.004923	0.69168	-0.150135	-0.448464	0.208248	1.05377
OMIM:200995	0.153214	-0.272029	0.947058	-0.413911	0.313529	-0.758144	-0.580121	-0.523615	-0.406307	0.170388	-0.393892	-0.038727	0.050129	-0.358324	0.263038	0.015788	-0.472741	-0.409984	-0.169773	0.323635	-0.422443	0.733744	-0.54086	-0.111207	-0.25289	-0.270859	0.560847	0.34545	0.149967	-0.767567	-0.291362	-0.141439	0.048259	-0.232525	0.146381	0.573935	0.500345	0.356725	0.418073	0.141261	0.21447	0.107748	0.233562	0.056393	-0.341606	0.302014	-0.570886	-0.072519	-0.06878	-0.267	-0.204929	-0.576749	-0.120485	0.196487	0.071543	-0.348481	0.850961	-0.717382	1.07858	0.463557	0.426877	-0.371179	0.565668	-0.033786
OMIM:200990	-0.052506	0.894825	1.00831	0.29995	0.285513	-0.605579	0.914469	-0.267164	0.078748	0.105899	-0.365416	-0.171464	-0.074368	0.161986	-0.299695	-0.254695	-1.02837	0.515624	-0.551434	0.195664	-0.686477	-0.45361	-0.433973	-0.299974	-0.137891	-0.319919	0.136823	-0.476201	0.028807	0.115951	0.627431	-0.278401	-0.327652	0.013191	-0.846423	0.458579	0.189922	-0.094278	-0.182203	-0.237868	0.205324	0.273407	0.48448	-0.012537	-0.720924	-0.231785	0.031452	0.169732	-0.866424	0.007456	0.040357	-0.391361	-0.343465	1.02095	-0.359145	-0.47857	0.388722	0.384325	0.292753	0.259424	0.587986	-0.030328	0.673978	-0.055211
OMIM:207410	-0.135046	0.173367	1.06	-0.044332	0.171636	-0.61362	0.154422	-0.041975	0.664195	0.294052	-0.144487	-0.189123	-0.174847	-0.833737	-0.085744	0.156427	-0.896143	-0.118129	-0.870192	-0.18293	-0.670104	-0.217327	-0.628742	-0.284868	-0.407477	-0.585009	0.391339	-0.090728	-0.116476	-0.100978	0.106973	0.638496	-0.145818	-0.1976	-0.192733	-0.203071	0.641502	-0.412195	-0.750639	-0.001129	0.337327	-0.091026	-0.542863	0.16967	-0.375872	0.127644	-0.42665	0.354138	-0.181028	-0.14292	-0.513109	-0.153461	-0.609389	-0.188108	-0.639176	-0.581136	0.396725	-0.26785	0.417999	-0.438571	0.666479	-0.277586	0.615177	-0.040935
OMIM:274150	0.400729	0.323474	-0.048589	0.580368	-0.155562	-0.518306	-0.97143	0.197198	-0.098703	-0.005382	-0.121751	0.818118	-0.406747	0.508264	-0.303576	-0.352711	0.12957	-0.249146	0.392966	1.4535	0.278937	0.225065	-0.063797	1.11645	-0.358715	-0.398443	-0.354993	0.966282	-0.36499	-0.664512	-0.605	-0.091503	-0.324919	-0.122799	-0.459054	-0.322332	0.348237	0.243847	-0.025912	-0.054692	0.5286	0.350659	0.04757	0.490751	-0.850431	0.201987	-0.493352	-0.207114	-0.006591	-0.268051	-0.083685	0.079189	0.295523	-0.195107	0.563811	0.717656	0.1711	-0.150309	0.269709	0.399371	-0.020777	-0.715001	-0.292146	0.857931
OMIM:271650	-0.172248	0.142384	0.163046	0.808363	0.127453	-0.060045	0.507238	0.470542	0.324761	-0.000136	0.040029	0.31006	-0.562908	0.407939	-0.538849	-0.313132	-0.517311	-0.208247	-0.731505	-0.123403	-0.368985	0.628424	-0.275163	0.248337	0.083485	-0.800349	-0.219601	0.797864	-0.484564	0.13839	0.413892	0.128549	-0.714966	-0.999929	0.574697	-0.289278	-0.025543	-0.625509	-0.040627	0.004813	0.639326	0.134879	0.000894	0.318104	-0.201403	0.28637	-0.580067	-0.517303	0.40044	-0.493114	0.567599	0.470277	-0.751208	0.53996	-0.382678	-0.531126	0.801566	-0.649737	0.310697	-0.522128	-0.269691	-0.011159	-0.45144	0.322607
OMIM:155980	-0.142673	0.009661	0.316114	-0.251618	-0.393025	-0.639612	-0.068285	-0.267876	0.921036	-0.035181	-0.317341	-0.503637	-0.674729	-0.897619	0.397243	0.338496	0.832804	-0.596874	0.628258	0.499345	-0.542715	0.525644	-1.00825	-0.894277	-0.023161	0.182282	0.182713	-0.267515	0.507075	-0.898828	0.53307	0.261207	-1.02292	-0.382303	0.523732	0.281136	0.21127	-0.116458	0.440891	-0.873941	0.717625	0.298554	0.339913	0.361237	-0.248754	0.119697	-0.058342	-0.091965	0.337962	0.076079	-0.53921	-0.761991	0.258072	0.159089	-0.148112	0.235713	0.638088	-0.131335	1.32661	-0.410181	0.375387	-0.534831	0.442522	-0.535279
